,SMALL LoBM weight,ME1 BM2 weight,ME1 BM3 weight,ME1 BM4 weight,SMALL HiBM weight,ME2 BM1 weight,ME2 BM2 weight,ME2 BM3 weight,ME2 BM4 weight,ME2 BM5 weight,ME3 BM1 weight,ME3 BM2 weight,ME3 BM3 weight,ME3 BM4 weight,ME3 BM5 weight,ME4 BM1 weight,ME4 BM2 weight,ME4 BM3 weight,ME4 BM4 weight,ME4 BM5 weight,BIG LoBM weight,ME5 BM2 weight,ME5 BM3 weight,ME5 BM4 weight,BIG HiBM weight
196307,-0.498642230295,-1.11460710032,-0.546912309848,0.293419131111,1.01617031441,-0.355412831668,0.0662865913732,0.106031685699,0.721259542692,0.71112519946,0.213424205616,1.10154042351,0.587913977593,0.491215308561,-0.479705641151,-0.634834467406,-0.794364512164,0.539431210819,-0.246863823599,-0.776693728428,0.92423299008,-0.273231837991,1.3154237286,-1.38969009038,0.0234842637258
196308,-0.498642230295,-1.11460710032,-0.546912309848,0.293419131111,1.01617031441,-0.355412831668,0.0662865913732,0.106031685699,0.721259542692,0.71112519946,0.213424205616,1.10154042351,0.587913977593,0.491215308561,-0.479705641151,-0.634834467406,-0.794364512164,0.539431210819,-0.246863823599,-0.776693728428,0.92423299008,-0.273231837991,1.3154237286,-1.38969009038,0.0234842637258
196309,-0.498642230295,-1.11460710032,-0.546912309848,0.293419131111,1.01617031441,-0.355412831668,0.0662865913732,0.106031685699,0.721259542692,0.71112519946,0.213424205616,1.10154042351,0.587913977593,0.491215308561,-0.479705641151,-0.634834467406,-0.794364512164,0.539431210819,-0.246863823599,-0.776693728428,0.92423299008,-0.273231837991,1.3154237286,-1.38969009038,0.0234842637258
196310,-0.498642230295,-1.11460710032,-0.546912309848,0.293419131111,1.01617031441,-0.355412831668,0.0662865913732,0.106031685699,0.721259542692,0.71112519946,0.213424205616,1.10154042351,0.587913977593,0.491215308561,-0.479705641151,-0.634834467406,-0.794364512164,0.539431210819,-0.246863823599,-0.776693728428,0.92423299008,-0.273231837991,1.3154237286,-1.38969009038,0.0234842637258
196311,-0.498642230295,-1.11460710032,-0.546912309848,0.293419131111,1.01617031441,-0.355412831668,0.0662865913732,0.106031685699,0.721259542692,0.71112519946,0.213424205616,1.10154042351,0.587913977593,0.491215308561,-0.479705641151,-0.634834467406,-0.794364512164,0.539431210819,-0.246863823599,-0.776693728428,0.92423299008,-0.273231837991,1.3154237286,-1.38969009038,0.0234842637258
196312,-0.498642230295,-1.11460710032,-0.546912309848,0.293419131111,1.01617031441,-0.355412831668,0.0662865913732,0.106031685699,0.721259542692,0.71112519946,0.213424205616,1.10154042351,0.587913977593,0.491215308561,-0.479705641151,-0.634834467406,-0.794364512164,0.539431210819,-0.246863823599,-0.776693728428,0.92423299008,-0.273231837991,1.3154237286,-1.38969009038,0.0234842637258
196401,-0.498642230295,-1.11460710032,-0.546912309848,0.293419131111,1.01617031441,-0.355412831668,0.0662865913732,0.106031685699,0.721259542692,0.71112519946,0.213424205616,1.10154042351,0.587913977593,0.491215308561,-0.479705641151,-0.634834467406,-0.794364512164,0.539431210819,-0.246863823599,-0.776693728428,0.92423299008,-0.273231837991,1.3154237286,-1.38969009038,0.0234842637258
196402,-0.498642230295,-1.11460710032,-0.546912309848,0.293419131111,1.01617031441,-0.355412831668,0.0662865913732,0.106031685699,0.721259542692,0.71112519946,0.213424205616,1.10154042351,0.587913977593,0.491215308561,-0.479705641151,-0.634834467406,-0.794364512164,0.539431210819,-0.246863823599,-0.776693728428,0.92423299008,-0.273231837991,1.3154237286,-1.38969009038,0.0234842637258
196403,-0.498642230295,-1.11460710032,-0.546912309848,0.293419131111,1.01617031441,-0.355412831668,0.0662865913732,0.106031685699,0.721259542692,0.71112519946,0.213424205616,1.10154042351,0.587913977593,0.491215308561,-0.479705641151,-0.634834467406,-0.794364512164,0.539431210819,-0.246863823599,-0.776693728428,0.92423299008,-0.273231837991,1.3154237286,-1.38969009038,0.0234842637258
196404,-0.498642230295,-1.11460710032,-0.546912309848,0.293419131111,1.01617031441,-0.355412831668,0.0662865913732,0.106031685699,0.721259542692,0.71112519946,0.213424205616,1.10154042351,0.587913977593,0.491215308561,-0.479705641151,-0.634834467406,-0.794364512164,0.539431210819,-0.246863823599,-0.776693728428,0.92423299008,-0.273231837991,1.3154237286,-1.38969009038,0.0234842637258
196405,-0.498642230295,-1.11460710032,-0.546912309848,0.293419131111,1.01617031441,-0.355412831668,0.0662865913732,0.106031685699,0.721259542692,0.71112519946,0.213424205616,1.10154042351,0.587913977593,0.491215308561,-0.479705641151,-0.634834467406,-0.794364512164,0.539431210819,-0.246863823599,-0.776693728428,0.92423299008,-0.273231837991,1.3154237286,-1.38969009038,0.0234842637258
196406,-0.498642230295,-1.11460710032,-0.546912309848,0.293419131111,1.01617031441,-0.355412831668,0.0662865913732,0.106031685699,0.721259542692,0.71112519946,0.213424205616,1.10154042351,0.587913977593,0.491215308561,-0.479705641151,-0.634834467406,-0.794364512164,0.539431210819,-0.246863823599,-0.776693728428,0.92423299008,-0.273231837991,1.3154237286,-1.38969009038,0.0234842637258
196407,-0.49741772435,-1.08423330478,-0.419054840439,0.212500292198,0.992411302367,-0.40866691007,0.143345218025,0.0772695066273,0.801388958098,0.703798668609,0.127598860108,1.10377457942,0.850820224819,0.0625360028923,-0.599830700846,-0.798522385657,-0.850299159382,0.859603771371,-0.017358760687,-0.891754726942,1.0158377455,-0.46971117185,1.36626852585,-1.34268710872,0.0623831378374
196408,-0.49741772435,-1.08423330478,-0.419054840439,0.212500292198,0.992411302367,-0.40866691007,0.143345218025,0.0772695066273,0.801388958098,0.703798668609,0.127598860108,1.10377457942,0.850820224819,0.0625360028923,-0.599830700846,-0.798522385657,-0.850299159382,0.859603771371,-0.017358760687,-0.891754726942,1.0158377455,-0.46971117185,1.36626852585,-1.34268710872,0.0623831378374
196409,-0.49741772435,-1.08423330478,-0.419054840439,0.212500292198,0.992411302367,-0.40866691007,0.143345218025,0.0772695066273,0.801388958098,0.703798668609,0.127598860108,1.10377457942,0.850820224819,0.0625360028923,-0.599830700846,-0.798522385657,-0.850299159382,0.859603771371,-0.017358760687,-0.891754726942,1.0158377455,-0.46971117185,1.36626852585,-1.34268710872,0.0623831378374
196410,-0.49741772435,-1.08423330478,-0.419054840439,0.212500292198,0.992411302367,-0.40866691007,0.143345218025,0.0772695066273,0.801388958098,0.703798668609,0.127598860108,1.10377457942,0.850820224819,0.0625360028923,-0.599830700846,-0.798522385657,-0.850299159382,0.859603771371,-0.017358760687,-0.891754726942,1.0158377455,-0.46971117185,1.36626852585,-1.34268710872,0.0623831378374
196411,-0.49741772435,-1.08423330478,-0.419054840439,0.212500292198,0.992411302367,-0.40866691007,0.143345218025,0.0772695066273,0.801388958098,0.703798668609,0.127598860108,1.10377457942,0.850820224819,0.0625360028923,-0.599830700846,-0.798522385657,-0.850299159382,0.859603771371,-0.017358760687,-0.891754726942,1.0158377455,-0.46971117185,1.36626852585,-1.34268710872,0.0623831378374
196412,-0.49741772435,-1.08423330478,-0.419054840439,0.212500292198,0.992411302367,-0.40866691007,0.143345218025,0.0772695066273,0.801388958098,0.703798668609,0.127598860108,1.10377457942,0.850820224819,0.0625360028923,-0.599830700846,-0.798522385657,-0.850299159382,0.859603771371,-0.017358760687,-0.891754726942,1.0158377455,-0.46971117185,1.36626852585,-1.34268710872,0.0623831378374
196501,-0.49741772435,-1.08423330478,-0.419054840439,0.212500292198,0.992411302367,-0.40866691007,0.143345218025,0.0772695066273,0.801388958098,0.703798668609,0.127598860108,1.10377457942,0.850820224819,0.0625360028923,-0.599830700846,-0.798522385657,-0.850299159382,0.859603771371,-0.017358760687,-0.891754726942,1.0158377455,-0.46971117185,1.36626852585,-1.34268710872,0.0623831378374
196502,-0.49741772435,-1.08423330478,-0.419054840439,0.212500292198,0.992411302367,-0.40866691007,0.143345218025,0.0772695066273,0.801388958098,0.703798668609,0.127598860108,1.10377457942,0.850820224819,0.0625360028923,-0.599830700846,-0.798522385657,-0.850299159382,0.859603771371,-0.017358760687,-0.891754726942,1.0158377455,-0.46971117185,1.36626852585,-1.34268710872,0.0623831378374
196503,-0.49741772435,-1.08423330478,-0.419054840439,0.212500292198,0.992411302367,-0.40866691007,0.143345218025,0.0772695066273,0.801388958098,0.703798668609,0.127598860108,1.10377457942,0.850820224819,0.0625360028923,-0.599830700846,-0.798522385657,-0.850299159382,0.859603771371,-0.017358760687,-0.891754726942,1.0158377455,-0.46971117185,1.36626852585,-1.34268710872,0.0623831378374
196504,-0.49741772435,-1.08423330478,-0.419054840439,0.212500292198,0.992411302367,-0.40866691007,0.143345218025,0.0772695066273,0.801388958098,0.703798668609,0.127598860108,1.10377457942,0.850820224819,0.0625360028923,-0.599830700846,-0.798522385657,-0.850299159382,0.859603771371,-0.017358760687,-0.891754726942,1.0158377455,-0.46971117185,1.36626852585,-1.34268710872,0.0623831378374
196505,-0.49741772435,-1.08423330478,-0.419054840439,0.212500292198,0.992411302367,-0.40866691007,0.143345218025,0.0772695066273,0.801388958098,0.703798668609,0.127598860108,1.10377457942,0.850820224819,0.0625360028923,-0.599830700846,-0.798522385657,-0.850299159382,0.859603771371,-0.017358760687,-0.891754726942,1.0158377455,-0.46971117185,1.36626852585,-1.34268710872,0.0623831378374
196506,-0.49741772435,-1.08423330478,-0.419054840439,0.212500292198,0.992411302367,-0.40866691007,0.143345218025,0.0772695066273,0.801388958098,0.703798668609,0.127598860108,1.10377457942,0.850820224819,0.0625360028923,-0.599830700846,-0.798522385657,-0.850299159382,0.859603771371,-0.017358760687,-0.891754726942,1.0158377455,-0.46971117185,1.36626852585,-1.34268710872,0.0623831378374
196507,-0.586612186976,-1.21297459446,-0.48339476241,0.304251476748,1.10112721571,-0.388270372834,-0.266005228833,0.227888299068,0.625963497826,0.709116586531,0.336621697878,1.23085293854,0.849226534314,0.629259341019,-0.538381614302,-0.969321488366,-0.748176176637,0.746597811175,-0.0478178630572,-0.860543927642,0.825234415621,-0.41112324865,1.44904243632,-1.52937141634,0.00681062976157
196508,-0.586612186976,-1.21297459446,-0.48339476241,0.304251476748,1.10112721571,-0.388270372834,-0.266005228833,0.227888299068,0.625963497826,0.709116586531,0.336621697878,1.23085293854,0.849226534314,0.629259341019,-0.538381614302,-0.969321488366,-0.748176176637,0.746597811175,-0.0478178630572,-0.860543927642,0.825234415621,-0.41112324865,1.44904243632,-1.52937141634,0.00681062976157
196509,-0.586612186976,-1.21297459446,-0.48339476241,0.304251476748,1.10112721571,-0.388270372834,-0.266005228833,0.227888299068,0.625963497826,0.709116586531,0.336621697878,1.23085293854,0.849226534314,0.629259341019,-0.538381614302,-0.969321488366,-0.748176176637,0.746597811175,-0.0478178630572,-0.860543927642,0.825234415621,-0.41112324865,1.44904243632,-1.52937141634,0.00681062976157
196510,-0.586612186976,-1.21297459446,-0.48339476241,0.304251476748,1.10112721571,-0.388270372834,-0.266005228833,0.227888299068,0.625963497826,0.709116586531,0.336621697878,1.23085293854,0.849226534314,0.629259341019,-0.538381614302,-0.969321488366,-0.748176176637,0.746597811175,-0.0478178630572,-0.860543927642,0.825234415621,-0.41112324865,1.44904243632,-1.52937141634,0.00681062976157
196511,-0.586612186976,-1.21297459446,-0.48339476241,0.304251476748,1.10112721571,-0.388270372834,-0.266005228833,0.227888299068,0.625963497826,0.709116586531,0.336621697878,1.23085293854,0.849226534314,0.629259341019,-0.538381614302,-0.969321488366,-0.748176176637,0.746597811175,-0.0478178630572,-0.860543927642,0.825234415621,-0.41112324865,1.44904243632,-1.52937141634,0.00681062976157
196512,-0.586612186976,-1.21297459446,-0.48339476241,0.304251476748,1.10112721571,-0.388270372834,-0.266005228833,0.227888299068,0.625963497826,0.709116586531,0.336621697878,1.23085293854,0.849226534314,0.629259341019,-0.538381614302,-0.969321488366,-0.748176176637,0.746597811175,-0.0478178630572,-0.860543927642,0.825234415621,-0.41112324865,1.44904243632,-1.52937141634,0.00681062976157
196601,-0.586612186976,-1.21297459446,-0.48339476241,0.304251476748,1.10112721571,-0.388270372834,-0.266005228833,0.227888299068,0.625963497826,0.709116586531,0.336621697878,1.23085293854,0.849226534314,0.629259341019,-0.538381614302,-0.969321488366,-0.748176176637,0.746597811175,-0.0478178630572,-0.860543927642,0.825234415621,-0.41112324865,1.44904243632,-1.52937141634,0.00681062976157
196602,-0.586612186976,-1.21297459446,-0.48339476241,0.304251476748,1.10112721571,-0.388270372834,-0.266005228833,0.227888299068,0.625963497826,0.709116586531,0.336621697878,1.23085293854,0.849226534314,0.629259341019,-0.538381614302,-0.969321488366,-0.748176176637,0.746597811175,-0.0478178630572,-0.860543927642,0.825234415621,-0.41112324865,1.44904243632,-1.52937141634,0.00681062976157
196603,-0.586612186976,-1.21297459446,-0.48339476241,0.304251476748,1.10112721571,-0.388270372834,-0.266005228833,0.227888299068,0.625963497826,0.709116586531,0.336621697878,1.23085293854,0.849226534314,0.629259341019,-0.538381614302,-0.969321488366,-0.748176176637,0.746597811175,-0.0478178630572,-0.860543927642,0.825234415621,-0.41112324865,1.44904243632,-1.52937141634,0.00681062976157
196604,-0.586612186976,-1.21297459446,-0.48339476241,0.304251476748,1.10112721571,-0.388270372834,-0.266005228833,0.227888299068,0.625963497826,0.709116586531,0.336621697878,1.23085293854,0.849226534314,0.629259341019,-0.538381614302,-0.969321488366,-0.748176176637,0.746597811175,-0.0478178630572,-0.860543927642,0.825234415621,-0.41112324865,1.44904243632,-1.52937141634,0.00681062976157
196605,-0.586612186976,-1.21297459446,-0.48339476241,0.304251476748,1.10112721571,-0.388270372834,-0.266005228833,0.227888299068,0.625963497826,0.709116586531,0.336621697878,1.23085293854,0.849226534314,0.629259341019,-0.538381614302,-0.969321488366,-0.748176176637,0.746597811175,-0.0478178630572,-0.860543927642,0.825234415621,-0.41112324865,1.44904243632,-1.52937141634,0.00681062976157
196606,-0.586612186976,-1.21297459446,-0.48339476241,0.304251476748,1.10112721571,-0.388270372834,-0.266005228833,0.227888299068,0.625963497826,0.709116586531,0.336621697878,1.23085293854,0.849226534314,0.629259341019,-0.538381614302,-0.969321488366,-0.748176176637,0.746597811175,-0.0478178630572,-0.860543927642,0.825234415621,-0.41112324865,1.44904243632,-1.52937141634,0.00681062976157
196607,-0.602887190928,-1.37423454222,-0.415324839467,0.380578058304,1.07250048637,-0.383390394725,0.0702830836587,-0.0161296009331,0.744860658223,1.00133873828,0.258153618015,1.23049887376,1.38414818628,0.376073017745,-0.676212279117,-0.759218353603,-0.669506777058,0.566743547147,0.0679029153479,-1.02352939302,0.844682782966,-1.19740434463,1.83865226135,-1.68262095029,-0.0359575614567
196608,-0.602887190928,-1.37423454222,-0.415324839467,0.380578058304,1.07250048637,-0.383390394725,0.0702830836587,-0.0161296009331,0.744860658223,1.00133873828,0.258153618015,1.23049887376,1.38414818628,0.376073017745,-0.676212279117,-0.759218353603,-0.669506777058,0.566743547147,0.0679029153479,-1.02352939302,0.844682782966,-1.19740434463,1.83865226135,-1.68262095029,-0.0359575614567
196609,-0.602887190928,-1.37423454222,-0.415324839467,0.380578058304,1.07250048637,-0.383390394725,0.0702830836587,-0.0161296009331,0.744860658223,1.00133873828,0.258153618015,1.23049887376,1.38414818628,0.376073017745,-0.676212279117,-0.759218353603,-0.669506777058,0.566743547147,0.0679029153479,-1.02352939302,0.844682782966,-1.19740434463,1.83865226135,-1.68262095029,-0.0359575614567
196610,-0.602887190928,-1.37423454222,-0.415324839467,0.380578058304,1.07250048637,-0.383390394725,0.0702830836587,-0.0161296009331,0.744860658223,1.00133873828,0.258153618015,1.23049887376,1.38414818628,0.376073017745,-0.676212279117,-0.759218353603,-0.669506777058,0.566743547147,0.0679029153479,-1.02352939302,0.844682782966,-1.19740434463,1.83865226135,-1.68262095029,-0.0359575614567
196611,-0.602887190928,-1.37423454222,-0.415324839467,0.380578058304,1.07250048637,-0.383390394725,0.0702830836587,-0.0161296009331,0.744860658223,1.00133873828,0.258153618015,1.23049887376,1.38414818628,0.376073017745,-0.676212279117,-0.759218353603,-0.669506777058,0.566743547147,0.0679029153479,-1.02352939302,0.844682782966,-1.19740434463,1.83865226135,-1.68262095029,-0.0359575614567
196612,-0.602887190928,-1.37423454222,-0.415324839467,0.380578058304,1.07250048637,-0.383390394725,0.0702830836587,-0.0161296009331,0.744860658223,1.00133873828,0.258153618015,1.23049887376,1.38414818628,0.376073017745,-0.676212279117,-0.759218353603,-0.669506777058,0.566743547147,0.0679029153479,-1.02352939302,0.844682782966,-1.19740434463,1.83865226135,-1.68262095029,-0.0359575614567
196701,-0.602887190928,-1.37423454222,-0.415324839467,0.380578058304,1.07250048637,-0.383390394725,0.0702830836587,-0.0161296009331,0.744860658223,1.00133873828,0.258153618015,1.23049887376,1.38414818628,0.376073017745,-0.676212279117,-0.759218353603,-0.669506777058,0.566743547147,0.0679029153479,-1.02352939302,0.844682782966,-1.19740434463,1.83865226135,-1.68262095029,-0.0359575614567
196702,-0.602887190928,-1.37423454222,-0.415324839467,0.380578058304,1.07250048637,-0.383390394725,0.0702830836587,-0.0161296009331,0.744860658223,1.00133873828,0.258153618015,1.23049887376,1.38414818628,0.376073017745,-0.676212279117,-0.759218353603,-0.669506777058,0.566743547147,0.0679029153479,-1.02352939302,0.844682782966,-1.19740434463,1.83865226135,-1.68262095029,-0.0359575614567
196703,-0.602887190928,-1.37423454222,-0.415324839467,0.380578058304,1.07250048637,-0.383390394725,0.0702830836587,-0.0161296009331,0.744860658223,1.00133873828,0.258153618015,1.23049887376,1.38414818628,0.376073017745,-0.676212279117,-0.759218353603,-0.669506777058,0.566743547147,0.0679029153479,-1.02352939302,0.844682782966,-1.19740434463,1.83865226135,-1.68262095029,-0.0359575614567
196704,-0.602887190928,-1.37423454222,-0.415324839467,0.380578058304,1.07250048637,-0.383390394725,0.0702830836587,-0.0161296009331,0.744860658223,1.00133873828,0.258153618015,1.23049887376,1.38414818628,0.376073017745,-0.676212279117,-0.759218353603,-0.669506777058,0.566743547147,0.0679029153479,-1.02352939302,0.844682782966,-1.19740434463,1.83865226135,-1.68262095029,-0.0359575614567
196705,-0.602887190928,-1.37423454222,-0.415324839467,0.380578058304,1.07250048637,-0.383390394725,0.0702830836587,-0.0161296009331,0.744860658223,1.00133873828,0.258153618015,1.23049887376,1.38414818628,0.376073017745,-0.676212279117,-0.759218353603,-0.669506777058,0.566743547147,0.0679029153479,-1.02352939302,0.844682782966,-1.19740434463,1.83865226135,-1.68262095029,-0.0359575614567
196706,-0.602887190928,-1.37423454222,-0.415324839467,0.380578058304,1.07250048637,-0.383390394725,0.0702830836587,-0.0161296009331,0.744860658223,1.00133873828,0.258153618015,1.23049887376,1.38414818628,0.376073017745,-0.676212279117,-0.759218353603,-0.669506777058,0.566743547147,0.0679029153479,-1.02352939302,0.844682782966,-1.19740434463,1.83865226135,-1.68262095029,-0.0359575614567
196707,-0.50079833098,-1.16100127259,-0.339885594231,0.484922763584,1.0115633924,-0.106132577312,-0.116718379857,0.366608113238,0.447075649342,0.705137151903,0.316000908669,0.710414110441,0.580826903195,0.240411601083,-0.773964329428,0.167681114096,-0.140794317191,0.554861389317,0.141387052524,-0.87408569566,0.487575023971,-1.29216416239,1.51608315281,-1.38271889112,-0.0422847758255
196708,-0.50079833098,-1.16100127259,-0.339885594231,0.484922763584,1.0115633924,-0.106132577312,-0.116718379857,0.366608113238,0.447075649342,0.705137151903,0.316000908669,0.710414110441,0.580826903195,0.240411601083,-0.773964329428,0.167681114096,-0.140794317191,0.554861389317,0.141387052524,-0.87408569566,0.487575023971,-1.29216416239,1.51608315281,-1.38271889112,-0.0422847758255
196709,-0.50079833098,-1.16100127259,-0.339885594231,0.484922763584,1.0115633924,-0.106132577312,-0.116718379857,0.366608113238,0.447075649342,0.705137151903,0.316000908669,0.710414110441,0.580826903195,0.240411601083,-0.773964329428,0.167681114096,-0.140794317191,0.554861389317,0.141387052524,-0.87408569566,0.487575023971,-1.29216416239,1.51608315281,-1.38271889112,-0.0422847758255
196710,-0.50079833098,-1.16100127259,-0.339885594231,0.484922763584,1.0115633924,-0.106132577312,-0.116718379857,0.366608113238,0.447075649342,0.705137151903,0.316000908669,0.710414110441,0.580826903195,0.240411601083,-0.773964329428,0.167681114096,-0.140794317191,0.554861389317,0.141387052524,-0.87408569566,0.487575023971,-1.29216416239,1.51608315281,-1.38271889112,-0.0422847758255
196711,-0.50079833098,-1.16100127259,-0.339885594231,0.484922763584,1.0115633924,-0.106132577312,-0.116718379857,0.366608113238,0.447075649342,0.705137151903,0.316000908669,0.710414110441,0.580826903195,0.240411601083,-0.773964329428,0.167681114096,-0.140794317191,0.554861389317,0.141387052524,-0.87408569566,0.487575023971,-1.29216416239,1.51608315281,-1.38271889112,-0.0422847758255
196712,-0.50079833098,-1.16100127259,-0.339885594231,0.484922763584,1.0115633924,-0.106132577312,-0.116718379857,0.366608113238,0.447075649342,0.705137151903,0.316000908669,0.710414110441,0.580826903195,0.240411601083,-0.773964329428,0.167681114096,-0.140794317191,0.554861389317,0.141387052524,-0.87408569566,0.487575023971,-1.29216416239,1.51608315281,-1.38271889112,-0.0422847758255
196801,-0.50079833098,-1.16100127259,-0.339885594231,0.484922763584,1.0115633924,-0.106132577312,-0.116718379857,0.366608113238,0.447075649342,0.705137151903,0.316000908669,0.710414110441,0.580826903195,0.240411601083,-0.773964329428,0.167681114096,-0.140794317191,0.554861389317,0.141387052524,-0.87408569566,0.487575023971,-1.29216416239,1.51608315281,-1.38271889112,-0.0422847758255
196802,-0.50079833098,-1.16100127259,-0.339885594231,0.484922763584,1.0115633924,-0.106132577312,-0.116718379857,0.366608113238,0.447075649342,0.705137151903,0.316000908669,0.710414110441,0.580826903195,0.240411601083,-0.773964329428,0.167681114096,-0.140794317191,0.554861389317,0.141387052524,-0.87408569566,0.487575023971,-1.29216416239,1.51608315281,-1.38271889112,-0.0422847758255
196803,-0.50079833098,-1.16100127259,-0.339885594231,0.484922763584,1.0115633924,-0.106132577312,-0.116718379857,0.366608113238,0.447075649342,0.705137151903,0.316000908669,0.710414110441,0.580826903195,0.240411601083,-0.773964329428,0.167681114096,-0.140794317191,0.554861389317,0.141387052524,-0.87408569566,0.487575023971,-1.29216416239,1.51608315281,-1.38271889112,-0.0422847758255
196804,-0.50079833098,-1.16100127259,-0.339885594231,0.484922763584,1.0115633924,-0.106132577312,-0.116718379857,0.366608113238,0.447075649342,0.705137151903,0.316000908669,0.710414110441,0.580826903195,0.240411601083,-0.773964329428,0.167681114096,-0.140794317191,0.554861389317,0.141387052524,-0.87408569566,0.487575023971,-1.29216416239,1.51608315281,-1.38271889112,-0.0422847758255
196805,-0.50079833098,-1.16100127259,-0.339885594231,0.484922763584,1.0115633924,-0.106132577312,-0.116718379857,0.366608113238,0.447075649342,0.705137151903,0.316000908669,0.710414110441,0.580826903195,0.240411601083,-0.773964329428,0.167681114096,-0.140794317191,0.554861389317,0.141387052524,-0.87408569566,0.487575023971,-1.29216416239,1.51608315281,-1.38271889112,-0.0422847758255
196806,-0.50079833098,-1.16100127259,-0.339885594231,0.484922763584,1.0115633924,-0.106132577312,-0.116718379857,0.366608113238,0.447075649342,0.705137151903,0.316000908669,0.710414110441,0.580826903195,0.240411601083,-0.773964329428,0.167681114096,-0.140794317191,0.554861389317,0.141387052524,-0.87408569566,0.487575023971,-1.29216416239,1.51608315281,-1.38271889112,-0.0422847758255
196807,-0.503715983436,-1.08958998823,-0.450775827687,0.319694947577,1.09591007089,-0.0597660348613,-0.157801621305,0.510498545997,0.671252997169,0.533239821151,0.359179689448,0.948787530662,0.439116124997,0.150333509689,-0.612064056947,-0.048204779971,-0.507080719495,0.736041692444,0.473655170572,-1.10639110058,0.619809935481,-1.54070334267,1.72401843984,-1.52997493979,0.0245299190604
196808,-0.503715983436,-1.08958998823,-0.450775827687,0.319694947577,1.09591007089,-0.0597660348613,-0.157801621305,0.510498545997,0.671252997169,0.533239821151,0.359179689448,0.948787530662,0.439116124997,0.150333509689,-0.612064056947,-0.048204779971,-0.507080719495,0.736041692444,0.473655170572,-1.10639110058,0.619809935481,-1.54070334267,1.72401843984,-1.52997493979,0.0245299190604
196809,-0.503715983436,-1.08958998823,-0.450775827687,0.319694947577,1.09591007089,-0.0597660348613,-0.157801621305,0.510498545997,0.671252997169,0.533239821151,0.359179689448,0.948787530662,0.439116124997,0.150333509689,-0.612064056947,-0.048204779971,-0.507080719495,0.736041692444,0.473655170572,-1.10639110058,0.619809935481,-1.54070334267,1.72401843984,-1.52997493979,0.0245299190604
196810,-0.503715983436,-1.08958998823,-0.450775827687,0.319694947577,1.09591007089,-0.0597660348613,-0.157801621305,0.510498545997,0.671252997169,0.533239821151,0.359179689448,0.948787530662,0.439116124997,0.150333509689,-0.612064056947,-0.048204779971,-0.507080719495,0.736041692444,0.473655170572,-1.10639110058,0.619809935481,-1.54070334267,1.72401843984,-1.52997493979,0.0245299190604
196811,-0.503715983436,-1.08958998823,-0.450775827687,0.319694947577,1.09591007089,-0.0597660348613,-0.157801621305,0.510498545997,0.671252997169,0.533239821151,0.359179689448,0.948787530662,0.439116124997,0.150333509689,-0.612064056947,-0.048204779971,-0.507080719495,0.736041692444,0.473655170572,-1.10639110058,0.619809935481,-1.54070334267,1.72401843984,-1.52997493979,0.0245299190604
196812,-0.503715983436,-1.08958998823,-0.450775827687,0.319694947577,1.09591007089,-0.0597660348613,-0.157801621305,0.510498545997,0.671252997169,0.533239821151,0.359179689448,0.948787530662,0.439116124997,0.150333509689,-0.612064056947,-0.048204779971,-0.507080719495,0.736041692444,0.473655170572,-1.10639110058,0.619809935481,-1.54070334267,1.72401843984,-1.52997493979,0.0245299190604
196901,-0.503715983436,-1.08958998823,-0.450775827687,0.319694947577,1.09591007089,-0.0597660348613,-0.157801621305,0.510498545997,0.671252997169,0.533239821151,0.359179689448,0.948787530662,0.439116124997,0.150333509689,-0.612064056947,-0.048204779971,-0.507080719495,0.736041692444,0.473655170572,-1.10639110058,0.619809935481,-1.54070334267,1.72401843984,-1.52997493979,0.0245299190604
196902,-0.503715983436,-1.08958998823,-0.450775827687,0.319694947577,1.09591007089,-0.0597660348613,-0.157801621305,0.510498545997,0.671252997169,0.533239821151,0.359179689448,0.948787530662,0.439116124997,0.150333509689,-0.612064056947,-0.048204779971,-0.507080719495,0.736041692444,0.473655170572,-1.10639110058,0.619809935481,-1.54070334267,1.72401843984,-1.52997493979,0.0245299190604
196903,-0.503715983436,-1.08958998823,-0.450775827687,0.319694947577,1.09591007089,-0.0597660348613,-0.157801621305,0.510498545997,0.671252997169,0.533239821151,0.359179689448,0.948787530662,0.439116124997,0.150333509689,-0.612064056947,-0.048204779971,-0.507080719495,0.736041692444,0.473655170572,-1.10639110058,0.619809935481,-1.54070334267,1.72401843984,-1.52997493979,0.0245299190604
196904,-0.503715983436,-1.08958998823,-0.450775827687,0.319694947577,1.09591007089,-0.0597660348613,-0.157801621305,0.510498545997,0.671252997169,0.533239821151,0.359179689448,0.948787530662,0.439116124997,0.150333509689,-0.612064056947,-0.048204779971,-0.507080719495,0.736041692444,0.473655170572,-1.10639110058,0.619809935481,-1.54070334267,1.72401843984,-1.52997493979,0.0245299190604
196905,-0.503715983436,-1.08958998823,-0.450775827687,0.319694947577,1.09591007089,-0.0597660348613,-0.157801621305,0.510498545997,0.671252997169,0.533239821151,0.359179689448,0.948787530662,0.439116124997,0.150333509689,-0.612064056947,-0.048204779971,-0.507080719495,0.736041692444,0.473655170572,-1.10639110058,0.619809935481,-1.54070334267,1.72401843984,-1.52997493979,0.0245299190604
196906,-0.503715983436,-1.08958998823,-0.450775827687,0.319694947577,1.09591007089,-0.0597660348613,-0.157801621305,0.510498545997,0.671252997169,0.533239821151,0.359179689448,0.948787530662,0.439116124997,0.150333509689,-0.612064056947,-0.048204779971,-0.507080719495,0.736041692444,0.473655170572,-1.10639110058,0.619809935481,-1.54070334267,1.72401843984,-1.52997493979,0.0245299190604
196907,-0.249157219224,-0.880373564428,-0.482810160625,0.918806109984,0.635586203194,-0.243150074325,-0.318078983879,0.498053847402,-0.0779491357753,0.531712238413,0.0776609354791,1.43864924892,0.613535078784,0.0116423676592,-0.731405116588,0.126487023307,-1.23947908247,0.325823375152,0.0792073770291,-0.590810586258,0.61887897076,-1.39737343596,1.84115261436,-0.217361190944,-0.28924683997
196908,-0.249157219224,-0.880373564428,-0.482810160625,0.918806109984,0.635586203194,-0.243150074325,-0.318078983879,0.498053847402,-0.0779491357753,0.531712238413,0.0776609354791,1.43864924892,0.613535078784,0.0116423676592,-0.731405116588,0.126487023307,-1.23947908247,0.325823375152,0.0792073770291,-0.590810586258,0.61887897076,-1.39737343596,1.84115261436,-0.217361190944,-0.28924683997
196909,-0.249157219224,-0.880373564428,-0.482810160625,0.918806109984,0.635586203194,-0.243150074325,-0.318078983879,0.498053847402,-0.0779491357753,0.531712238413,0.0776609354791,1.43864924892,0.613535078784,0.0116423676592,-0.731405116588,0.126487023307,-1.23947908247,0.325823375152,0.0792073770291,-0.590810586258,0.61887897076,-1.39737343596,1.84115261436,-0.217361190944,-0.28924683997
196910,-0.249157219224,-0.880373564428,-0.482810160625,0.918806109984,0.635586203194,-0.243150074325,-0.318078983879,0.498053847402,-0.0779491357753,0.531712238413,0.0776609354791,1.43864924892,0.613535078784,0.0116423676592,-0.731405116588,0.126487023307,-1.23947908247,0.325823375152,0.0792073770291,-0.590810586258,0.61887897076,-1.39737343596,1.84115261436,-0.217361190944,-0.28924683997
196911,-0.249157219224,-0.880373564428,-0.482810160625,0.918806109984,0.635586203194,-0.243150074325,-0.318078983879,0.498053847402,-0.0779491357753,0.531712238413,0.0776609354791,1.43864924892,0.613535078784,0.0116423676592,-0.731405116588,0.126487023307,-1.23947908247,0.325823375152,0.0792073770291,-0.590810586258,0.61887897076,-1.39737343596,1.84115261436,-0.217361190944,-0.28924683997
196912,-0.249157219224,-0.880373564428,-0.482810160625,0.918806109984,0.635586203194,-0.243150074325,-0.318078983879,0.498053847402,-0.0779491357753,0.531712238413,0.0776609354791,1.43864924892,0.613535078784,0.0116423676592,-0.731405116588,0.126487023307,-1.23947908247,0.325823375152,0.0792073770291,-0.590810586258,0.61887897076,-1.39737343596,1.84115261436,-0.217361190944,-0.28924683997
197001,-0.249157219224,-0.880373564428,-0.482810160625,0.918806109984,0.635586203194,-0.243150074325,-0.318078983879,0.498053847402,-0.0779491357753,0.531712238413,0.0776609354791,1.43864924892,0.613535078784,0.0116423676592,-0.731405116588,0.126487023307,-1.23947908247,0.325823375152,0.0792073770291,-0.590810586258,0.61887897076,-1.39737343596,1.84115261436,-0.217361190944,-0.28924683997
197002,-0.249157219224,-0.880373564428,-0.482810160625,0.918806109984,0.635586203194,-0.243150074325,-0.318078983879,0.498053847402,-0.0779491357753,0.531712238413,0.0776609354791,1.43864924892,0.613535078784,0.0116423676592,-0.731405116588,0.126487023307,-1.23947908247,0.325823375152,0.0792073770291,-0.590810586258,0.61887897076,-1.39737343596,1.84115261436,-0.217361190944,-0.28924683997
197003,-0.249157219224,-0.880373564428,-0.482810160625,0.918806109984,0.635586203194,-0.243150074325,-0.318078983879,0.498053847402,-0.0779491357753,0.531712238413,0.0776609354791,1.43864924892,0.613535078784,0.0116423676592,-0.731405116588,0.126487023307,-1.23947908247,0.325823375152,0.0792073770291,-0.590810586258,0.61887897076,-1.39737343596,1.84115261436,-0.217361190944,-0.28924683997
197004,-0.249157219224,-0.880373564428,-0.482810160625,0.918806109984,0.635586203194,-0.243150074325,-0.318078983879,0.498053847402,-0.0779491357753,0.531712238413,0.0776609354791,1.43864924892,0.613535078784,0.0116423676592,-0.731405116588,0.126487023307,-1.23947908247,0.325823375152,0.0792073770291,-0.590810586258,0.61887897076,-1.39737343596,1.84115261436,-0.217361190944,-0.28924683997
197005,-0.249157219224,-0.880373564428,-0.482810160625,0.918806109984,0.635586203194,-0.243150074325,-0.318078983879,0.498053847402,-0.0779491357753,0.531712238413,0.0776609354791,1.43864924892,0.613535078784,0.0116423676592,-0.731405116588,0.126487023307,-1.23947908247,0.325823375152,0.0792073770291,-0.590810586258,0.61887897076,-1.39737343596,1.84115261436,-0.217361190944,-0.28924683997
197006,-0.249157219224,-0.880373564428,-0.482810160625,0.918806109984,0.635586203194,-0.243150074325,-0.318078983879,0.498053847402,-0.0779491357753,0.531712238413,0.0776609354791,1.43864924892,0.613535078784,0.0116423676592,-0.731405116588,0.126487023307,-1.23947908247,0.325823375152,0.0792073770291,-0.590810586258,0.61887897076,-1.39737343596,1.84115261436,-0.217361190944,-0.28924683997
197007,-0.482664865534,-1.06094401453,-0.541877262952,1.04840353369,0.799258781812,-0.463006657446,0.308078306496,0.17148765924,0.240925045363,0.830903212522,-0.0361151249538,1.27723951202,0.22108083891,0.638030425748,-1.14295578261,-0.234209941195,-1.38964220053,0.708601468878,0.134576975049,-0.55509108108,0.568893086157,-1.09626041179,1.67055416305,-0.414014793554,-0.201250872759
197008,-0.482664865534,-1.06094401453,-0.541877262952,1.04840353369,0.799258781812,-0.463006657446,0.308078306496,0.17148765924,0.240925045363,0.830903212522,-0.0361151249538,1.27723951202,0.22108083891,0.638030425748,-1.14295578261,-0.234209941195,-1.38964220053,0.708601468878,0.134576975049,-0.55509108108,0.568893086157,-1.09626041179,1.67055416305,-0.414014793554,-0.201250872759
197009,-0.482664865534,-1.06094401453,-0.541877262952,1.04840353369,0.799258781812,-0.463006657446,0.308078306496,0.17148765924,0.240925045363,0.830903212522,-0.0361151249538,1.27723951202,0.22108083891,0.638030425748,-1.14295578261,-0.234209941195,-1.38964220053,0.708601468878,0.134576975049,-0.55509108108,0.568893086157,-1.09626041179,1.67055416305,-0.414014793554,-0.201250872759
197010,-0.482664865534,-1.06094401453,-0.541877262952,1.04840353369,0.799258781812,-0.463006657446,0.308078306496,0.17148765924,0.240925045363,0.830903212522,-0.0361151249538,1.27723951202,0.22108083891,0.638030425748,-1.14295578261,-0.234209941195,-1.38964220053,0.708601468878,0.134576975049,-0.55509108108,0.568893086157,-1.09626041179,1.67055416305,-0.414014793554,-0.201250872759
197011,-0.482664865534,-1.06094401453,-0.541877262952,1.04840353369,0.799258781812,-0.463006657446,0.308078306496,0.17148765924,0.240925045363,0.830903212522,-0.0361151249538,1.27723951202,0.22108083891,0.638030425748,-1.14295578261,-0.234209941195,-1.38964220053,0.708601468878,0.134576975049,-0.55509108108,0.568893086157,-1.09626041179,1.67055416305,-0.414014793554,-0.201250872759
197012,-0.482664865534,-1.06094401453,-0.541877262952,1.04840353369,0.799258781812,-0.463006657446,0.308078306496,0.17148765924,0.240925045363,0.830903212522,-0.0361151249538,1.27723951202,0.22108083891,0.638030425748,-1.14295578261,-0.234209941195,-1.38964220053,0.708601468878,0.134576975049,-0.55509108108,0.568893086157,-1.09626041179,1.67055416305,-0.414014793554,-0.201250872759
197101,-0.482664865534,-1.06094401453,-0.541877262952,1.04840353369,0.799258781812,-0.463006657446,0.308078306496,0.17148765924,0.240925045363,0.830903212522,-0.0361151249538,1.27723951202,0.22108083891,0.638030425748,-1.14295578261,-0.234209941195,-1.38964220053,0.708601468878,0.134576975049,-0.55509108108,0.568893086157,-1.09626041179,1.67055416305,-0.414014793554,-0.201250872759
197102,-0.482664865534,-1.06094401453,-0.541877262952,1.04840353369,0.799258781812,-0.463006657446,0.308078306496,0.17148765924,0.240925045363,0.830903212522,-0.0361151249538,1.27723951202,0.22108083891,0.638030425748,-1.14295578261,-0.234209941195,-1.38964220053,0.708601468878,0.134576975049,-0.55509108108,0.568893086157,-1.09626041179,1.67055416305,-0.414014793554,-0.201250872759
197103,-0.482664865534,-1.06094401453,-0.541877262952,1.04840353369,0.799258781812,-0.463006657446,0.308078306496,0.17148765924,0.240925045363,0.830903212522,-0.0361151249538,1.27723951202,0.22108083891,0.638030425748,-1.14295578261,-0.234209941195,-1.38964220053,0.708601468878,0.134576975049,-0.55509108108,0.568893086157,-1.09626041179,1.67055416305,-0.414014793554,-0.201250872759
197104,-0.482664865534,-1.06094401453,-0.541877262952,1.04840353369,0.799258781812,-0.463006657446,0.308078306496,0.17148765924,0.240925045363,0.830903212522,-0.0361151249538,1.27723951202,0.22108083891,0.638030425748,-1.14295578261,-0.234209941195,-1.38964220053,0.708601468878,0.134576975049,-0.55509108108,0.568893086157,-1.09626041179,1.67055416305,-0.414014793554,-0.201250872759
197105,-0.482664865534,-1.06094401453,-0.541877262952,1.04840353369,0.799258781812,-0.463006657446,0.308078306496,0.17148765924,0.240925045363,0.830903212522,-0.0361151249538,1.27723951202,0.22108083891,0.638030425748,-1.14295578261,-0.234209941195,-1.38964220053,0.708601468878,0.134576975049,-0.55509108108,0.568893086157,-1.09626041179,1.67055416305,-0.414014793554,-0.201250872759
197106,-0.482664865534,-1.06094401453,-0.541877262952,1.04840353369,0.799258781812,-0.463006657446,0.308078306496,0.17148765924,0.240925045363,0.830903212522,-0.0361151249538,1.27723951202,0.22108083891,0.638030425748,-1.14295578261,-0.234209941195,-1.38964220053,0.708601468878,0.134576975049,-0.55509108108,0.568893086157,-1.09626041179,1.67055416305,-0.414014793554,-0.201250872759
197107,-0.507445011857,-0.959002662212,-0.688746639895,0.608971987313,0.864602645914,-0.464721486844,0.42261922641,0.445925156285,0.255038543435,0.647590801754,0.0380239319393,1.19464726641,0.440007479478,0.801872483194,-0.872342222864,-0.605447885589,-1.40021360814,0.743772694598,-0.0675720180684,-0.495086468919,0.846954582519,-1.4083121649,1.51920619625,-0.180085500758,-0.18025732545
197108,-0.507445011857,-0.959002662212,-0.688746639895,0.608971987313,0.864602645914,-0.464721486844,0.42261922641,0.445925156285,0.255038543435,0.647590801754,0.0380239319393,1.19464726641,0.440007479478,0.801872483194,-0.872342222864,-0.605447885589,-1.40021360814,0.743772694598,-0.0675720180684,-0.495086468919,0.846954582519,-1.4083121649,1.51920619625,-0.180085500758,-0.18025732545
197109,-0.507445011857,-0.959002662212,-0.688746639895,0.608971987313,0.864602645914,-0.464721486844,0.42261922641,0.445925156285,0.255038543435,0.647590801754,0.0380239319393,1.19464726641,0.440007479478,0.801872483194,-0.872342222864,-0.605447885589,-1.40021360814,0.743772694598,-0.0675720180684,-0.495086468919,0.846954582519,-1.4083121649,1.51920619625,-0.180085500758,-0.18025732545
197110,-0.507445011857,-0.959002662212,-0.688746639895,0.608971987313,0.864602645914,-0.464721486844,0.42261922641,0.445925156285,0.255038543435,0.647590801754,0.0380239319393,1.19464726641,0.440007479478,0.801872483194,-0.872342222864,-0.605447885589,-1.40021360814,0.743772694598,-0.0675720180684,-0.495086468919,0.846954582519,-1.4083121649,1.51920619625,-0.180085500758,-0.18025732545
197111,-0.507445011857,-0.959002662212,-0.688746639895,0.608971987313,0.864602645914,-0.464721486844,0.42261922641,0.445925156285,0.255038543435,0.647590801754,0.0380239319393,1.19464726641,0.440007479478,0.801872483194,-0.872342222864,-0.605447885589,-1.40021360814,0.743772694598,-0.0675720180684,-0.495086468919,0.846954582519,-1.4083121649,1.51920619625,-0.180085500758,-0.18025732545
197112,-0.507445011857,-0.959002662212,-0.688746639895,0.608971987313,0.864602645914,-0.464721486844,0.42261922641,0.445925156285,0.255038543435,0.647590801754,0.0380239319393,1.19464726641,0.440007479478,0.801872483194,-0.872342222864,-0.605447885589,-1.40021360814,0.743772694598,-0.0675720180684,-0.495086468919,0.846954582519,-1.4083121649,1.51920619625,-0.180085500758,-0.18025732545
197201,-0.507445011857,-0.959002662212,-0.688746639895,0.608971987313,0.864602645914,-0.464721486844,0.42261922641,0.445925156285,0.255038543435,0.647590801754,0.0380239319393,1.19464726641,0.440007479478,0.801872483194,-0.872342222864,-0.605447885589,-1.40021360814,0.743772694598,-0.0675720180684,-0.495086468919,0.846954582519,-1.4083121649,1.51920619625,-0.180085500758,-0.18025732545
197202,-0.507445011857,-0.959002662212,-0.688746639895,0.608971987313,0.864602645914,-0.464721486844,0.42261922641,0.445925156285,0.255038543435,0.647590801754,0.0380239319393,1.19464726641,0.440007479478,0.801872483194,-0.872342222864,-0.605447885589,-1.40021360814,0.743772694598,-0.0675720180684,-0.495086468919,0.846954582519,-1.4083121649,1.51920619625,-0.180085500758,-0.18025732545
197203,-0.507445011857,-0.959002662212,-0.688746639895,0.608971987313,0.864602645914,-0.464721486844,0.42261922641,0.445925156285,0.255038543435,0.647590801754,0.0380239319393,1.19464726641,0.440007479478,0.801872483194,-0.872342222864,-0.605447885589,-1.40021360814,0.743772694598,-0.0675720180684,-0.495086468919,0.846954582519,-1.4083121649,1.51920619625,-0.180085500758,-0.18025732545
197204,-0.507445011857,-0.959002662212,-0.688746639895,0.608971987313,0.864602645914,-0.464721486844,0.42261922641,0.445925156285,0.255038543435,0.647590801754,0.0380239319393,1.19464726641,0.440007479478,0.801872483194,-0.872342222864,-0.605447885589,-1.40021360814,0.743772694598,-0.0675720180684,-0.495086468919,0.846954582519,-1.4083121649,1.51920619625,-0.180085500758,-0.18025732545
197205,-0.507445011857,-0.959002662212,-0.688746639895,0.608971987313,0.864602645914,-0.464721486844,0.42261922641,0.445925156285,0.255038543435,0.647590801754,0.0380239319393,1.19464726641,0.440007479478,0.801872483194,-0.872342222864,-0.605447885589,-1.40021360814,0.743772694598,-0.0675720180684,-0.495086468919,0.846954582519,-1.4083121649,1.51920619625,-0.180085500758,-0.18025732545
197206,-0.507445011857,-0.959002662212,-0.688746639895,0.608971987313,0.864602645914,-0.464721486844,0.42261922641,0.445925156285,0.255038543435,0.647590801754,0.0380239319393,1.19464726641,0.440007479478,0.801872483194,-0.872342222864,-0.605447885589,-1.40021360814,0.743772694598,-0.0675720180684,-0.495086468919,0.846954582519,-1.4083121649,1.51920619625,-0.180085500758,-0.18025732545
197207,-0.575179969904,-0.963044191797,-0.764062195699,0.971399176483,0.71900994293,-0.48322721955,0.37425431574,0.549707544353,0.223341737098,0.80247690564,-0.0279981877221,1.23668675108,0.273429918425,1.07590330688,-0.914901191042,-0.334939915112,-1.8595626678,0.532436955455,-0.0221101717382,-0.386965580568,1.10574050238,-1.7742473183,1.54169316912,-0.119265079892,-0.180576536444
197208,-0.575179969904,-0.963044191797,-0.764062195699,0.971399176483,0.71900994293,-0.48322721955,0.37425431574,0.549707544353,0.223341737098,0.80247690564,-0.0279981877221,1.23668675108,0.273429918425,1.07590330688,-0.914901191042,-0.334939915112,-1.8595626678,0.532436955455,-0.0221101717382,-0.386965580568,1.10574050238,-1.7742473183,1.54169316912,-0.119265079892,-0.180576536444
197209,-0.575179969904,-0.963044191797,-0.764062195699,0.971399176483,0.71900994293,-0.48322721955,0.37425431574,0.549707544353,0.223341737098,0.80247690564,-0.0279981877221,1.23668675108,0.273429918425,1.07590330688,-0.914901191042,-0.334939915112,-1.8595626678,0.532436955455,-0.0221101717382,-0.386965580568,1.10574050238,-1.7742473183,1.54169316912,-0.119265079892,-0.180576536444
197210,-0.575179969904,-0.963044191797,-0.764062195699,0.971399176483,0.71900994293,-0.48322721955,0.37425431574,0.549707544353,0.223341737098,0.80247690564,-0.0279981877221,1.23668675108,0.273429918425,1.07590330688,-0.914901191042,-0.334939915112,-1.8595626678,0.532436955455,-0.0221101717382,-0.386965580568,1.10574050238,-1.7742473183,1.54169316912,-0.119265079892,-0.180576536444
197211,-0.575179969904,-0.963044191797,-0.764062195699,0.971399176483,0.71900994293,-0.48322721955,0.37425431574,0.549707544353,0.223341737098,0.80247690564,-0.0279981877221,1.23668675108,0.273429918425,1.07590330688,-0.914901191042,-0.334939915112,-1.8595626678,0.532436955455,-0.0221101717382,-0.386965580568,1.10574050238,-1.7742473183,1.54169316912,-0.119265079892,-0.180576536444
197212,-0.575179969904,-0.963044191797,-0.764062195699,0.971399176483,0.71900994293,-0.48322721955,0.37425431574,0.549707544353,0.223341737098,0.80247690564,-0.0279981877221,1.23668675108,0.273429918425,1.07590330688,-0.914901191042,-0.334939915112,-1.8595626678,0.532436955455,-0.0221101717382,-0.386965580568,1.10574050238,-1.7742473183,1.54169316912,-0.119265079892,-0.180576536444
197301,-0.575179969904,-0.963044191797,-0.764062195699,0.971399176483,0.71900994293,-0.48322721955,0.37425431574,0.549707544353,0.223341737098,0.80247690564,-0.0279981877221,1.23668675108,0.273429918425,1.07590330688,-0.914901191042,-0.334939915112,-1.8595626678,0.532436955455,-0.0221101717382,-0.386965580568,1.10574050238,-1.7742473183,1.54169316912,-0.119265079892,-0.180576536444
197302,-0.575179969904,-0.963044191797,-0.764062195699,0.971399176483,0.71900994293,-0.48322721955,0.37425431574,0.549707544353,0.223341737098,0.80247690564,-0.0279981877221,1.23668675108,0.273429918425,1.07590330688,-0.914901191042,-0.334939915112,-1.8595626678,0.532436955455,-0.0221101717382,-0.386965580568,1.10574050238,-1.7742473183,1.54169316912,-0.119265079892,-0.180576536444
197303,-0.575179969904,-0.963044191797,-0.764062195699,0.971399176483,0.71900994293,-0.48322721955,0.37425431574,0.549707544353,0.223341737098,0.80247690564,-0.0279981877221,1.23668675108,0.273429918425,1.07590330688,-0.914901191042,-0.334939915112,-1.8595626678,0.532436955455,-0.0221101717382,-0.386965580568,1.10574050238,-1.7742473183,1.54169316912,-0.119265079892,-0.180576536444
197304,-0.575179969904,-0.963044191797,-0.764062195699,0.971399176483,0.71900994293,-0.48322721955,0.37425431574,0.549707544353,0.223341737098,0.80247690564,-0.0279981877221,1.23668675108,0.273429918425,1.07590330688,-0.914901191042,-0.334939915112,-1.8595626678,0.532436955455,-0.0221101717382,-0.386965580568,1.10574050238,-1.7742473183,1.54169316912,-0.119265079892,-0.180576536444
197305,-0.575179969904,-0.963044191797,-0.764062195699,0.971399176483,0.71900994293,-0.48322721955,0.37425431574,0.549707544353,0.223341737098,0.80247690564,-0.0279981877221,1.23668675108,0.273429918425,1.07590330688,-0.914901191042,-0.334939915112,-1.8595626678,0.532436955455,-0.0221101717382,-0.386965580568,1.10574050238,-1.7742473183,1.54169316912,-0.119265079892,-0.180576536444
197306,-0.575179969904,-0.963044191797,-0.764062195699,0.971399176483,0.71900994293,-0.48322721955,0.37425431574,0.549707544353,0.223341737098,0.80247690564,-0.0279981877221,1.23668675108,0.273429918425,1.07590330688,-0.914901191042,-0.334939915112,-1.8595626678,0.532436955455,-0.0221101717382,-0.386965580568,1.10574050238,-1.7742473183,1.54169316912,-0.119265079892,-0.180576536444
197307,-0.54023143574,-0.93149414295,-0.889663022778,0.73710810418,0.844476243142,-0.33954879898,0.35456488131,0.781723264795,0.2608412951,0.745741654895,-0.161184890213,1.11211572904,0.207590712722,1.08037965812,-0.996616654896,-0.38936354421,-1.84393832388,0.712552562865,-0.0506833703155,-0.321203759938,1.01443632795,-1.61801212537,1.49670354877,-0.0802893252839,-0.186004588335
197308,-0.54023143574,-0.93149414295,-0.889663022778,0.73710810418,0.844476243142,-0.33954879898,0.35456488131,0.781723264795,0.2608412951,0.745741654895,-0.161184890213,1.11211572904,0.207590712722,1.08037965812,-0.996616654896,-0.38936354421,-1.84393832388,0.712552562865,-0.0506833703155,-0.321203759938,1.01443632795,-1.61801212537,1.49670354877,-0.0802893252839,-0.186004588335
197309,-0.54023143574,-0.93149414295,-0.889663022778,0.73710810418,0.844476243142,-0.33954879898,0.35456488131,0.781723264795,0.2608412951,0.745741654895,-0.161184890213,1.11211572904,0.207590712722,1.08037965812,-0.996616654896,-0.38936354421,-1.84393832388,0.712552562865,-0.0506833703155,-0.321203759938,1.01443632795,-1.61801212537,1.49670354877,-0.0802893252839,-0.186004588335
197310,-0.54023143574,-0.93149414295,-0.889663022778,0.73710810418,0.844476243142,-0.33954879898,0.35456488131,0.781723264795,0.2608412951,0.745741654895,-0.161184890213,1.11211572904,0.207590712722,1.08037965812,-0.996616654896,-0.38936354421,-1.84393832388,0.712552562865,-0.0506833703155,-0.321203759938,1.01443632795,-1.61801212537,1.49670354877,-0.0802893252839,-0.186004588335
197311,-0.54023143574,-0.93149414295,-0.889663022778,0.73710810418,0.844476243142,-0.33954879898,0.35456488131,0.781723264795,0.2608412951,0.745741654895,-0.161184890213,1.11211572904,0.207590712722,1.08037965812,-0.996616654896,-0.38936354421,-1.84393832388,0.712552562865,-0.0506833703155,-0.321203759938,1.01443632795,-1.61801212537,1.49670354877,-0.0802893252839,-0.186004588335
197312,-0.54023143574,-0.93149414295,-0.889663022778,0.73710810418,0.844476243142,-0.33954879898,0.35456488131,0.781723264795,0.2608412951,0.745741654895,-0.161184890213,1.11211572904,0.207590712722,1.08037965812,-0.996616654896,-0.38936354421,-1.84393832388,0.712552562865,-0.0506833703155,-0.321203759938,1.01443632795,-1.61801212537,1.49670354877,-0.0802893252839,-0.186004588335
197401,-0.54023143574,-0.93149414295,-0.889663022778,0.73710810418,0.844476243142,-0.33954879898,0.35456488131,0.781723264795,0.2608412951,0.745741654895,-0.161184890213,1.11211572904,0.207590712722,1.08037965812,-0.996616654896,-0.38936354421,-1.84393832388,0.712552562865,-0.0506833703155,-0.321203759938,1.01443632795,-1.61801212537,1.49670354877,-0.0802893252839,-0.186004588335
197402,-0.54023143574,-0.93149414295,-0.889663022778,0.73710810418,0.844476243142,-0.33954879898,0.35456488131,0.781723264795,0.2608412951,0.745741654895,-0.161184890213,1.11211572904,0.207590712722,1.08037965812,-0.996616654896,-0.38936354421,-1.84393832388,0.712552562865,-0.0506833703155,-0.321203759938,1.01443632795,-1.61801212537,1.49670354877,-0.0802893252839,-0.186004588335
197403,-0.54023143574,-0.93149414295,-0.889663022778,0.73710810418,0.844476243142,-0.33954879898,0.35456488131,0.781723264795,0.2608412951,0.745741654895,-0.161184890213,1.11211572904,0.207590712722,1.08037965812,-0.996616654896,-0.38936354421,-1.84393832388,0.712552562865,-0.0506833703155,-0.321203759938,1.01443632795,-1.61801212537,1.49670354877,-0.0802893252839,-0.186004588335
197404,-0.54023143574,-0.93149414295,-0.889663022778,0.73710810418,0.844476243142,-0.33954879898,0.35456488131,0.781723264795,0.2608412951,0.745741654895,-0.161184890213,1.11211572904,0.207590712722,1.08037965812,-0.996616654896,-0.38936354421,-1.84393832388,0.712552562865,-0.0506833703155,-0.321203759938,1.01443632795,-1.61801212537,1.49670354877,-0.0802893252839,-0.186004588335
197405,-0.54023143574,-0.93149414295,-0.889663022778,0.73710810418,0.844476243142,-0.33954879898,0.35456488131,0.781723264795,0.2608412951,0.745741654895,-0.161184890213,1.11211572904,0.207590712722,1.08037965812,-0.996616654896,-0.38936354421,-1.84393832388,0.712552562865,-0.0506833703155,-0.321203759938,1.01443632795,-1.61801212537,1.49670354877,-0.0802893252839,-0.186004588335
197406,-0.54023143574,-0.93149414295,-0.889663022778,0.73710810418,0.844476243142,-0.33954879898,0.35456488131,0.781723264795,0.2608412951,0.745741654895,-0.161184890213,1.11211572904,0.207590712722,1.08037965812,-0.996616654896,-0.38936354421,-1.84393832388,0.712552562865,-0.0506833703155,-0.321203759938,1.01443632795,-1.61801212537,1.49670354877,-0.0802893252839,-0.186004588335
197407,-0.532096245097,-0.991445770233,-1.03204649723,0.618510472541,0.981025051089,-0.329769905711,0.318635509283,1.00184758657,0.358735983463,1.05696223715,-0.123188574565,1.17675654957,-0.146453980527,0.69042455467,-1.11985287122,-0.417312470776,-1.96757897532,1.20131053265,0.102265490836,-0.317556312769,1.05464407067,-1.73391965297,1.54584133004,-0.148043684211,-0.247694427901
197408,-0.532096245097,-0.991445770233,-1.03204649723,0.618510472541,0.981025051089,-0.329769905711,0.318635509283,1.00184758657,0.358735983463,1.05696223715,-0.123188574565,1.17675654957,-0.146453980527,0.69042455467,-1.11985287122,-0.417312470776,-1.96757897532,1.20131053265,0.102265490836,-0.317556312769,1.05464407067,-1.73391965297,1.54584133004,-0.148043684211,-0.247694427901
197409,-0.532096245097,-0.991445770233,-1.03204649723,0.618510472541,0.981025051089,-0.329769905711,0.318635509283,1.00184758657,0.358735983463,1.05696223715,-0.123188574565,1.17675654957,-0.146453980527,0.69042455467,-1.11985287122,-0.417312470776,-1.96757897532,1.20131053265,0.102265490836,-0.317556312769,1.05464407067,-1.73391965297,1.54584133004,-0.148043684211,-0.247694427901
197410,-0.532096245097,-0.991445770233,-1.03204649723,0.618510472541,0.981025051089,-0.329769905711,0.318635509283,1.00184758657,0.358735983463,1.05696223715,-0.123188574565,1.17675654957,-0.146453980527,0.69042455467,-1.11985287122,-0.417312470776,-1.96757897532,1.20131053265,0.102265490836,-0.317556312769,1.05464407067,-1.73391965297,1.54584133004,-0.148043684211,-0.247694427901
197411,-0.532096245097,-0.991445770233,-1.03204649723,0.618510472541,0.981025051089,-0.329769905711,0.318635509283,1.00184758657,0.358735983463,1.05696223715,-0.123188574565,1.17675654957,-0.146453980527,0.69042455467,-1.11985287122,-0.417312470776,-1.96757897532,1.20131053265,0.102265490836,-0.317556312769,1.05464407067,-1.73391965297,1.54584133004,-0.148043684211,-0.247694427901
197412,-0.532096245097,-0.991445770233,-1.03204649723,0.618510472541,0.981025051089,-0.329769905711,0.318635509283,1.00184758657,0.358735983463,1.05696223715,-0.123188574565,1.17675654957,-0.146453980527,0.69042455467,-1.11985287122,-0.417312470776,-1.96757897532,1.20131053265,0.102265490836,-0.317556312769,1.05464407067,-1.73391965297,1.54584133004,-0.148043684211,-0.247694427901
197501,-0.532096245097,-0.991445770233,-1.03204649723,0.618510472541,0.981025051089,-0.329769905711,0.318635509283,1.00184758657,0.358735983463,1.05696223715,-0.123188574565,1.17675654957,-0.146453980527,0.69042455467,-1.11985287122,-0.417312470776,-1.96757897532,1.20131053265,0.102265490836,-0.317556312769,1.05464407067,-1.73391965297,1.54584133004,-0.148043684211,-0.247694427901
197502,-0.532096245097,-0.991445770233,-1.03204649723,0.618510472541,0.981025051089,-0.329769905711,0.318635509283,1.00184758657,0.358735983463,1.05696223715,-0.123188574565,1.17675654957,-0.146453980527,0.69042455467,-1.11985287122,-0.417312470776,-1.96757897532,1.20131053265,0.102265490836,-0.317556312769,1.05464407067,-1.73391965297,1.54584133004,-0.148043684211,-0.247694427901
197503,-0.532096245097,-0.991445770233,-1.03204649723,0.618510472541,0.981025051089,-0.329769905711,0.318635509283,1.00184758657,0.358735983463,1.05696223715,-0.123188574565,1.17675654957,-0.146453980527,0.69042455467,-1.11985287122,-0.417312470776,-1.96757897532,1.20131053265,0.102265490836,-0.317556312769,1.05464407067,-1.73391965297,1.54584133004,-0.148043684211,-0.247694427901
197504,-0.532096245097,-0.991445770233,-1.03204649723,0.618510472541,0.981025051089,-0.329769905711,0.318635509283,1.00184758657,0.358735983463,1.05696223715,-0.123188574565,1.17675654957,-0.146453980527,0.69042455467,-1.11985287122,-0.417312470776,-1.96757897532,1.20131053265,0.102265490836,-0.317556312769,1.05464407067,-1.73391965297,1.54584133004,-0.148043684211,-0.247694427901
197505,-0.532096245097,-0.991445770233,-1.03204649723,0.618510472541,0.981025051089,-0.329769905711,0.318635509283,1.00184758657,0.358735983463,1.05696223715,-0.123188574565,1.17675654957,-0.146453980527,0.69042455467,-1.11985287122,-0.417312470776,-1.96757897532,1.20131053265,0.102265490836,-0.317556312769,1.05464407067,-1.73391965297,1.54584133004,-0.148043684211,-0.247694427901
197506,-0.532096245097,-0.991445770233,-1.03204649723,0.618510472541,0.981025051089,-0.329769905711,0.318635509283,1.00184758657,0.358735983463,1.05696223715,-0.123188574565,1.17675654957,-0.146453980527,0.69042455467,-1.11985287122,-0.417312470776,-1.96757897532,1.20131053265,0.102265490836,-0.317556312769,1.05464407067,-1.73391965297,1.54584133004,-0.148043684211,-0.247694427901
197507,-0.633764840499,-0.945438482996,-0.997771684951,0.558221593414,1.27050620591,-0.325745717527,0.56322702693,0.888183065075,-0.00443205777692,0.83346427197,-0.277868898764,1.10237556057,-0.426529278782,0.766653476608,-1.04992637685,-0.299797394314,-1.64130933423,1.26411223009,0.601567320191,-0.434867290184,0.838778114693,-1.55846381926,1.40963735063,-0.37314793886,-0.127663101095
197508,-0.633764840499,-0.945438482996,-0.997771684951,0.558221593414,1.27050620591,-0.325745717527,0.56322702693,0.888183065075,-0.00443205777692,0.83346427197,-0.277868898764,1.10237556057,-0.426529278782,0.766653476608,-1.04992637685,-0.299797394314,-1.64130933423,1.26411223009,0.601567320191,-0.434867290184,0.838778114693,-1.55846381926,1.40963735063,-0.37314793886,-0.127663101095
197509,-0.633764840499,-0.945438482996,-0.997771684951,0.558221593414,1.27050620591,-0.325745717527,0.56322702693,0.888183065075,-0.00443205777692,0.83346427197,-0.277868898764,1.10237556057,-0.426529278782,0.766653476608,-1.04992637685,-0.299797394314,-1.64130933423,1.26411223009,0.601567320191,-0.434867290184,0.838778114693,-1.55846381926,1.40963735063,-0.37314793886,-0.127663101095
197510,-0.633764840499,-0.945438482996,-0.997771684951,0.558221593414,1.27050620591,-0.325745717527,0.56322702693,0.888183065075,-0.00443205777692,0.83346427197,-0.277868898764,1.10237556057,-0.426529278782,0.766653476608,-1.04992637685,-0.299797394314,-1.64130933423,1.26411223009,0.601567320191,-0.434867290184,0.838778114693,-1.55846381926,1.40963735063,-0.37314793886,-0.127663101095
197511,-0.633764840499,-0.945438482996,-0.997771684951,0.558221593414,1.27050620591,-0.325745717527,0.56322702693,0.888183065075,-0.00443205777692,0.83346427197,-0.277868898764,1.10237556057,-0.426529278782,0.766653476608,-1.04992637685,-0.299797394314,-1.64130933423,1.26411223009,0.601567320191,-0.434867290184,0.838778114693,-1.55846381926,1.40963735063,-0.37314793886,-0.127663101095
197512,-0.633764840499,-0.945438482996,-0.997771684951,0.558221593414,1.27050620591,-0.325745717527,0.56322702693,0.888183065075,-0.00443205777692,0.83346427197,-0.277868898764,1.10237556057,-0.426529278782,0.766653476608,-1.04992637685,-0.299797394314,-1.64130933423,1.26411223009,0.601567320191,-0.434867290184,0.838778114693,-1.55846381926,1.40963735063,-0.37314793886,-0.127663101095
197601,-0.633764840499,-0.945438482996,-0.997771684951,0.558221593414,1.27050620591,-0.325745717527,0.56322702693,0.888183065075,-0.00443205777692,0.83346427197,-0.277868898764,1.10237556057,-0.426529278782,0.766653476608,-1.04992637685,-0.299797394314,-1.64130933423,1.26411223009,0.601567320191,-0.434867290184,0.838778114693,-1.55846381926,1.40963735063,-0.37314793886,-0.127663101095
197602,-0.633764840499,-0.945438482996,-0.997771684951,0.558221593414,1.27050620591,-0.325745717527,0.56322702693,0.888183065075,-0.00443205777692,0.83346427197,-0.277868898764,1.10237556057,-0.426529278782,0.766653476608,-1.04992637685,-0.299797394314,-1.64130933423,1.26411223009,0.601567320191,-0.434867290184,0.838778114693,-1.55846381926,1.40963735063,-0.37314793886,-0.127663101095
197603,-0.633764840499,-0.945438482996,-0.997771684951,0.558221593414,1.27050620591,-0.325745717527,0.56322702693,0.888183065075,-0.00443205777692,0.83346427197,-0.277868898764,1.10237556057,-0.426529278782,0.766653476608,-1.04992637685,-0.299797394314,-1.64130933423,1.26411223009,0.601567320191,-0.434867290184,0.838778114693,-1.55846381926,1.40963735063,-0.37314793886,-0.127663101095
197604,-0.633764840499,-0.945438482996,-0.997771684951,0.558221593414,1.27050620591,-0.325745717527,0.56322702693,0.888183065075,-0.00443205777692,0.83346427197,-0.277868898764,1.10237556057,-0.426529278782,0.766653476608,-1.04992637685,-0.299797394314,-1.64130933423,1.26411223009,0.601567320191,-0.434867290184,0.838778114693,-1.55846381926,1.40963735063,-0.37314793886,-0.127663101095
197605,-0.633764840499,-0.945438482996,-0.997771684951,0.558221593414,1.27050620591,-0.325745717527,0.56322702693,0.888183065075,-0.00443205777692,0.83346427197,-0.277868898764,1.10237556057,-0.426529278782,0.766653476608,-1.04992637685,-0.299797394314,-1.64130933423,1.26411223009,0.601567320191,-0.434867290184,0.838778114693,-1.55846381926,1.40963735063,-0.37314793886,-0.127663101095
197606,-0.633764840499,-0.945438482996,-0.997771684951,0.558221593414,1.27050620591,-0.325745717527,0.56322702693,0.888183065075,-0.00443205777692,0.83346427197,-0.277868898764,1.10237556057,-0.426529278782,0.766653476608,-1.04992637685,-0.299797394314,-1.64130933423,1.26411223009,0.601567320191,-0.434867290184,0.838778114693,-1.55846381926,1.40963735063,-0.37314793886,-0.127663101095
197607,-0.570698716242,-0.815742939554,-1.02987960723,0.502252135215,1.17025100524,-0.409413753396,0.816698605355,0.740742210487,-0.136795948871,0.799862204108,-0.176414880221,0.977967478274,-0.400899625717,0.880811785216,-1.02537067334,-0.72920098329,-1.57490237073,1.67422173996,0.310870177951,-0.314105106534,0.726160134392,-1.41630730771,1.34098221459,-0.322650322622,-0.0184374553338
197608,-0.570698716242,-0.815742939554,-1.02987960723,0.502252135215,1.17025100524,-0.409413753396,0.816698605355,0.740742210487,-0.136795948871,0.799862204108,-0.176414880221,0.977967478274,-0.400899625717,0.880811785216,-1.02537067334,-0.72920098329,-1.57490237073,1.67422173996,0.310870177951,-0.314105106534,0.726160134392,-1.41630730771,1.34098221459,-0.322650322622,-0.0184374553338
197609,-0.570698716242,-0.815742939554,-1.02987960723,0.502252135215,1.17025100524,-0.409413753396,0.816698605355,0.740742210487,-0.136795948871,0.799862204108,-0.176414880221,0.977967478274,-0.400899625717,0.880811785216,-1.02537067334,-0.72920098329,-1.57490237073,1.67422173996,0.310870177951,-0.314105106534,0.726160134392,-1.41630730771,1.34098221459,-0.322650322622,-0.0184374553338
197610,-0.570698716242,-0.815742939554,-1.02987960723,0.502252135215,1.17025100524,-0.409413753396,0.816698605355,0.740742210487,-0.136795948871,0.799862204108,-0.176414880221,0.977967478274,-0.400899625717,0.880811785216,-1.02537067334,-0.72920098329,-1.57490237073,1.67422173996,0.310870177951,-0.314105106534,0.726160134392,-1.41630730771,1.34098221459,-0.322650322622,-0.0184374553338
197611,-0.570698716242,-0.815742939554,-1.02987960723,0.502252135215,1.17025100524,-0.409413753396,0.816698605355,0.740742210487,-0.136795948871,0.799862204108,-0.176414880221,0.977967478274,-0.400899625717,0.880811785216,-1.02537067334,-0.72920098329,-1.57490237073,1.67422173996,0.310870177951,-0.314105106534,0.726160134392,-1.41630730771,1.34098221459,-0.322650322622,-0.0184374553338
197612,-0.570698716242,-0.815742939554,-1.02987960723,0.502252135215,1.17025100524,-0.409413753396,0.816698605355,0.740742210487,-0.136795948871,0.799862204108,-0.176414880221,0.977967478274,-0.400899625717,0.880811785216,-1.02537067334,-0.72920098329,-1.57490237073,1.67422173996,0.310870177951,-0.314105106534,0.726160134392,-1.41630730771,1.34098221459,-0.322650322622,-0.0184374553338
197701,-0.570698716242,-0.815742939554,-1.02987960723,0.502252135215,1.17025100524,-0.409413753396,0.816698605355,0.740742210487,-0.136795948871,0.799862204108,-0.176414880221,0.977967478274,-0.400899625717,0.880811785216,-1.02537067334,-0.72920098329,-1.57490237073,1.67422173996,0.310870177951,-0.314105106534,0.726160134392,-1.41630730771,1.34098221459,-0.322650322622,-0.0184374553338
197702,-0.570698716242,-0.815742939554,-1.02987960723,0.502252135215,1.17025100524,-0.409413753396,0.816698605355,0.740742210487,-0.136795948871,0.799862204108,-0.176414880221,0.977967478274,-0.400899625717,0.880811785216,-1.02537067334,-0.72920098329,-1.57490237073,1.67422173996,0.310870177951,-0.314105106534,0.726160134392,-1.41630730771,1.34098221459,-0.322650322622,-0.0184374553338
197703,-0.570698716242,-0.815742939554,-1.02987960723,0.502252135215,1.17025100524,-0.409413753396,0.816698605355,0.740742210487,-0.136795948871,0.799862204108,-0.176414880221,0.977967478274,-0.400899625717,0.880811785216,-1.02537067334,-0.72920098329,-1.57490237073,1.67422173996,0.310870177951,-0.314105106534,0.726160134392,-1.41630730771,1.34098221459,-0.322650322622,-0.0184374553338
197704,-0.570698716242,-0.815742939554,-1.02987960723,0.502252135215,1.17025100524,-0.409413753396,0.816698605355,0.740742210487,-0.136795948871,0.799862204108,-0.176414880221,0.977967478274,-0.400899625717,0.880811785216,-1.02537067334,-0.72920098329,-1.57490237073,1.67422173996,0.310870177951,-0.314105106534,0.726160134392,-1.41630730771,1.34098221459,-0.322650322622,-0.0184374553338
197705,-0.570698716242,-0.815742939554,-1.02987960723,0.502252135215,1.17025100524,-0.409413753396,0.816698605355,0.740742210487,-0.136795948871,0.799862204108,-0.176414880221,0.977967478274,-0.400899625717,0.880811785216,-1.02537067334,-0.72920098329,-1.57490237073,1.67422173996,0.310870177951,-0.314105106534,0.726160134392,-1.41630730771,1.34098221459,-0.322650322622,-0.0184374553338
197706,-0.570698716242,-0.815742939554,-1.02987960723,0.502252135215,1.17025100524,-0.409413753396,0.816698605355,0.740742210487,-0.136795948871,0.799862204108,-0.176414880221,0.977967478274,-0.400899625717,0.880811785216,-1.02537067334,-0.72920098329,-1.57490237073,1.67422173996,0.310870177951,-0.314105106534,0.726160134392,-1.41630730771,1.34098221459,-0.322650322622,-0.0184374553338
197707,-0.566335933255,-0.744837505386,-1.00637239634,0.657221816532,1.12491123964,-0.535661383096,0.561157061084,1.04838838799,-0.354413221212,1.05373264404,-0.454042244284,0.903688819712,-0.492335453122,0.970926490233,-1.31337063341,-0.415000266911,-1.3134169546,1.74306386944,0.218407132708,-0.0821953633283,0.53296422706,-1.38721946022,1.3560768856,-0.364676649823,-0.140661109055
197708,-0.566335933255,-0.744837505386,-1.00637239634,0.657221816532,1.12491123964,-0.535661383096,0.561157061084,1.04838838799,-0.354413221212,1.05373264404,-0.454042244284,0.903688819712,-0.492335453122,0.970926490233,-1.31337063341,-0.415000266911,-1.3134169546,1.74306386944,0.218407132708,-0.0821953633283,0.53296422706,-1.38721946022,1.3560768856,-0.364676649823,-0.140661109055
197709,-0.566335933255,-0.744837505386,-1.00637239634,0.657221816532,1.12491123964,-0.535661383096,0.561157061084,1.04838838799,-0.354413221212,1.05373264404,-0.454042244284,0.903688819712,-0.492335453122,0.970926490233,-1.31337063341,-0.415000266911,-1.3134169546,1.74306386944,0.218407132708,-0.0821953633283,0.53296422706,-1.38721946022,1.3560768856,-0.364676649823,-0.140661109055
197710,-0.566335933255,-0.744837505386,-1.00637239634,0.657221816532,1.12491123964,-0.535661383096,0.561157061084,1.04838838799,-0.354413221212,1.05373264404,-0.454042244284,0.903688819712,-0.492335453122,0.970926490233,-1.31337063341,-0.415000266911,-1.3134169546,1.74306386944,0.218407132708,-0.0821953633283,0.53296422706,-1.38721946022,1.3560768856,-0.364676649823,-0.140661109055
197711,-0.566335933255,-0.744837505386,-1.00637239634,0.657221816532,1.12491123964,-0.535661383096,0.561157061084,1.04838838799,-0.354413221212,1.05373264404,-0.454042244284,0.903688819712,-0.492335453122,0.970926490233,-1.31337063341,-0.415000266911,-1.3134169546,1.74306386944,0.218407132708,-0.0821953633283,0.53296422706,-1.38721946022,1.3560768856,-0.364676649823,-0.140661109055
197712,-0.566335933255,-0.744837505386,-1.00637239634,0.657221816532,1.12491123964,-0.535661383096,0.561157061084,1.04838838799,-0.354413221212,1.05373264404,-0.454042244284,0.903688819712,-0.492335453122,0.970926490233,-1.31337063341,-0.415000266911,-1.3134169546,1.74306386944,0.218407132708,-0.0821953633283,0.53296422706,-1.38721946022,1.3560768856,-0.364676649823,-0.140661109055
197801,-0.566335933255,-0.744837505386,-1.00637239634,0.657221816532,1.12491123964,-0.535661383096,0.561157061084,1.04838838799,-0.354413221212,1.05373264404,-0.454042244284,0.903688819712,-0.492335453122,0.970926490233,-1.31337063341,-0.415000266911,-1.3134169546,1.74306386944,0.218407132708,-0.0821953633283,0.53296422706,-1.38721946022,1.3560768856,-0.364676649823,-0.140661109055
197802,-0.566335933255,-0.744837505386,-1.00637239634,0.657221816532,1.12491123964,-0.535661383096,0.561157061084,1.04838838799,-0.354413221212,1.05373264404,-0.454042244284,0.903688819712,-0.492335453122,0.970926490233,-1.31337063341,-0.415000266911,-1.3134169546,1.74306386944,0.218407132708,-0.0821953633283,0.53296422706,-1.38721946022,1.3560768856,-0.364676649823,-0.140661109055
197803,-0.566335933255,-0.744837505386,-1.00637239634,0.657221816532,1.12491123964,-0.535661383096,0.561157061084,1.04838838799,-0.354413221212,1.05373264404,-0.454042244284,0.903688819712,-0.492335453122,0.970926490233,-1.31337063341,-0.415000266911,-1.3134169546,1.74306386944,0.218407132708,-0.0821953633283,0.53296422706,-1.38721946022,1.3560768856,-0.364676649823,-0.140661109055
197804,-0.566335933255,-0.744837505386,-1.00637239634,0.657221816532,1.12491123964,-0.535661383096,0.561157061084,1.04838838799,-0.354413221212,1.05373264404,-0.454042244284,0.903688819712,-0.492335453122,0.970926490233,-1.31337063341,-0.415000266911,-1.3134169546,1.74306386944,0.218407132708,-0.0821953633283,0.53296422706,-1.38721946022,1.3560768856,-0.364676649823,-0.140661109055
197805,-0.566335933255,-0.744837505386,-1.00637239634,0.657221816532,1.12491123964,-0.535661383096,0.561157061084,1.04838838799,-0.354413221212,1.05373264404,-0.454042244284,0.903688819712,-0.492335453122,0.970926490233,-1.31337063341,-0.415000266911,-1.3134169546,1.74306386944,0.218407132708,-0.0821953633283,0.53296422706,-1.38721946022,1.3560768856,-0.364676649823,-0.140661109055
197806,-0.566335933255,-0.744837505386,-1.00637239634,0.657221816532,1.12491123964,-0.535661383096,0.561157061084,1.04838838799,-0.354413221212,1.05373264404,-0.454042244284,0.903688819712,-0.492335453122,0.970926490233,-1.31337063341,-0.415000266911,-1.3134169546,1.74306386944,0.218407132708,-0.0821953633283,0.53296422706,-1.38721946022,1.3560768856,-0.364676649823,-0.140661109055
197807,-0.559888175491,-0.672510724614,-1.03629661645,0.740389753054,1.2744282416,-0.786167459742,0.485740596636,1.06148839737,-0.169008594033,0.957671936307,-0.410479957875,0.977806253947,-0.40110022011,0.755187433102,-1.09488275309,-0.233504499108,-1.46462398545,1.79823415877,0.17362289612,-0.223294818148,0.660356022349,-1.56435718668,1.42660836933,-0.536918279009,-0.158500788789
197808,-0.559888175491,-0.672510724614,-1.03629661645,0.740389753054,1.2744282416,-0.786167459742,0.485740596636,1.06148839737,-0.169008594033,0.957671936307,-0.410479957875,0.977806253947,-0.40110022011,0.755187433102,-1.09488275309,-0.233504499108,-1.46462398545,1.79823415877,0.17362289612,-0.223294818148,0.660356022349,-1.56435718668,1.42660836933,-0.536918279009,-0.158500788789
197809,-0.559888175491,-0.672510724614,-1.03629661645,0.740389753054,1.2744282416,-0.786167459742,0.485740596636,1.06148839737,-0.169008594033,0.957671936307,-0.410479957875,0.977806253947,-0.40110022011,0.755187433102,-1.09488275309,-0.233504499108,-1.46462398545,1.79823415877,0.17362289612,-0.223294818148,0.660356022349,-1.56435718668,1.42660836933,-0.536918279009,-0.158500788789
197810,-0.559888175491,-0.672510724614,-1.03629661645,0.740389753054,1.2744282416,-0.786167459742,0.485740596636,1.06148839737,-0.169008594033,0.957671936307,-0.410479957875,0.977806253947,-0.40110022011,0.755187433102,-1.09488275309,-0.233504499108,-1.46462398545,1.79823415877,0.17362289612,-0.223294818148,0.660356022349,-1.56435718668,1.42660836933,-0.536918279009,-0.158500788789
197811,-0.559888175491,-0.672510724614,-1.03629661645,0.740389753054,1.2744282416,-0.786167459742,0.485740596636,1.06148839737,-0.169008594033,0.957671936307,-0.410479957875,0.977806253947,-0.40110022011,0.755187433102,-1.09488275309,-0.233504499108,-1.46462398545,1.79823415877,0.17362289612,-0.223294818148,0.660356022349,-1.56435718668,1.42660836933,-0.536918279009,-0.158500788789
197812,-0.559888175491,-0.672510724614,-1.03629661645,0.740389753054,1.2744282416,-0.786167459742,0.485740596636,1.06148839737,-0.169008594033,0.957671936307,-0.410479957875,0.977806253947,-0.40110022011,0.755187433102,-1.09488275309,-0.233504499108,-1.46462398545,1.79823415877,0.17362289612,-0.223294818148,0.660356022349,-1.56435718668,1.42660836933,-0.536918279009,-0.158500788789
197901,-0.559888175491,-0.672510724614,-1.03629661645,0.740389753054,1.2744282416,-0.786167459742,0.485740596636,1.06148839737,-0.169008594033,0.957671936307,-0.410479957875,0.977806253947,-0.40110022011,0.755187433102,-1.09488275309,-0.233504499108,-1.46462398545,1.79823415877,0.17362289612,-0.223294818148,0.660356022349,-1.56435718668,1.42660836933,-0.536918279009,-0.158500788789
197902,-0.559888175491,-0.672510724614,-1.03629661645,0.740389753054,1.2744282416,-0.786167459742,0.485740596636,1.06148839737,-0.169008594033,0.957671936307,-0.410479957875,0.977806253947,-0.40110022011,0.755187433102,-1.09488275309,-0.233504499108,-1.46462398545,1.79823415877,0.17362289612,-0.223294818148,0.660356022349,-1.56435718668,1.42660836933,-0.536918279009,-0.158500788789
197903,-0.559888175491,-0.672510724614,-1.03629661645,0.740389753054,1.2744282416,-0.786167459742,0.485740596636,1.06148839737,-0.169008594033,0.957671936307,-0.410479957875,0.977806253947,-0.40110022011,0.755187433102,-1.09488275309,-0.233504499108,-1.46462398545,1.79823415877,0.17362289612,-0.223294818148,0.660356022349,-1.56435718668,1.42660836933,-0.536918279009,-0.158500788789
197904,-0.559888175491,-0.672510724614,-1.03629661645,0.740389753054,1.2744282416,-0.786167459742,0.485740596636,1.06148839737,-0.169008594033,0.957671936307,-0.410479957875,0.977806253947,-0.40110022011,0.755187433102,-1.09488275309,-0.233504499108,-1.46462398545,1.79823415877,0.17362289612,-0.223294818148,0.660356022349,-1.56435718668,1.42660836933,-0.536918279009,-0.158500788789
197905,-0.559888175491,-0.672510724614,-1.03629661645,0.740389753054,1.2744282416,-0.786167459742,0.485740596636,1.06148839737,-0.169008594033,0.957671936307,-0.410479957875,0.977806253947,-0.40110022011,0.755187433102,-1.09488275309,-0.233504499108,-1.46462398545,1.79823415877,0.17362289612,-0.223294818148,0.660356022349,-1.56435718668,1.42660836933,-0.536918279009,-0.158500788789
197906,-0.559888175491,-0.672510724614,-1.03629661645,0.740389753054,1.2744282416,-0.786167459742,0.485740596636,1.06148839737,-0.169008594033,0.957671936307,-0.410479957875,0.977806253947,-0.40110022011,0.755187433102,-1.09488275309,-0.233504499108,-1.46462398545,1.79823415877,0.17362289612,-0.223294818148,0.660356022349,-1.56435718668,1.42660836933,-0.536918279009,-0.158500788789
197907,-0.448508187887,-0.568768127875,-1.01624261799,0.713260632818,1.02384488347,-0.653410645322,0.295211624627,1.05083495433,-0.388023815861,1.14295468048,-0.354517065955,0.824381230288,-0.410568527516,0.961553873868,-0.820141536528,-0.384659592866,-1.34073018891,1.80524080616,0.0134295261338,-0.331219702443,0.521759695709,-1.19703937397,1.39387902684,-0.440972186067,-0.391549365527
197908,-0.448508187887,-0.568768127875,-1.01624261799,0.713260632818,1.02384488347,-0.653410645322,0.295211624627,1.05083495433,-0.388023815861,1.14295468048,-0.354517065955,0.824381230288,-0.410568527516,0.961553873868,-0.820141536528,-0.384659592866,-1.34073018891,1.80524080616,0.0134295261338,-0.331219702443,0.521759695709,-1.19703937397,1.39387902684,-0.440972186067,-0.391549365527
197909,-0.448508187887,-0.568768127875,-1.01624261799,0.713260632818,1.02384488347,-0.653410645322,0.295211624627,1.05083495433,-0.388023815861,1.14295468048,-0.354517065955,0.824381230288,-0.410568527516,0.961553873868,-0.820141536528,-0.384659592866,-1.34073018891,1.80524080616,0.0134295261338,-0.331219702443,0.521759695709,-1.19703937397,1.39387902684,-0.440972186067,-0.391549365527
197910,-0.448508187887,-0.568768127875,-1.01624261799,0.713260632818,1.02384488347,-0.653410645322,0.295211624627,1.05083495433,-0.388023815861,1.14295468048,-0.354517065955,0.824381230288,-0.410568527516,0.961553873868,-0.820141536528,-0.384659592866,-1.34073018891,1.80524080616,0.0134295261338,-0.331219702443,0.521759695709,-1.19703937397,1.39387902684,-0.440972186067,-0.391549365527
197911,-0.448508187887,-0.568768127875,-1.01624261799,0.713260632818,1.02384488347,-0.653410645322,0.295211624627,1.05083495433,-0.388023815861,1.14295468048,-0.354517065955,0.824381230288,-0.410568527516,0.961553873868,-0.820141536528,-0.384659592866,-1.34073018891,1.80524080616,0.0134295261338,-0.331219702443,0.521759695709,-1.19703937397,1.39387902684,-0.440972186067,-0.391549365527
197912,-0.448508187887,-0.568768127875,-1.01624261799,0.713260632818,1.02384488347,-0.653410645322,0.295211624627,1.05083495433,-0.388023815861,1.14295468048,-0.354517065955,0.824381230288,-0.410568527516,0.961553873868,-0.820141536528,-0.384659592866,-1.34073018891,1.80524080616,0.0134295261338,-0.331219702443,0.521759695709,-1.19703937397,1.39387902684,-0.440972186067,-0.391549365527
198001,-0.448508187887,-0.568768127875,-1.01624261799,0.713260632818,1.02384488347,-0.653410645322,0.295211624627,1.05083495433,-0.388023815861,1.14295468048,-0.354517065955,0.824381230288,-0.410568527516,0.961553873868,-0.820141536528,-0.384659592866,-1.34073018891,1.80524080616,0.0134295261338,-0.331219702443,0.521759695709,-1.19703937397,1.39387902684,-0.440972186067,-0.391549365527
198002,-0.448508187887,-0.568768127875,-1.01624261799,0.713260632818,1.02384488347,-0.653410645322,0.295211624627,1.05083495433,-0.388023815861,1.14295468048,-0.354517065955,0.824381230288,-0.410568527516,0.961553873868,-0.820141536528,-0.384659592866,-1.34073018891,1.80524080616,0.0134295261338,-0.331219702443,0.521759695709,-1.19703937397,1.39387902684,-0.440972186067,-0.391549365527
198003,-0.448508187887,-0.568768127875,-1.01624261799,0.713260632818,1.02384488347,-0.653410645322,0.295211624627,1.05083495433,-0.388023815861,1.14295468048,-0.354517065955,0.824381230288,-0.410568527516,0.961553873868,-0.820141536528,-0.384659592866,-1.34073018891,1.80524080616,0.0134295261338,-0.331219702443,0.521759695709,-1.19703937397,1.39387902684,-0.440972186067,-0.391549365527
198004,-0.448508187887,-0.568768127875,-1.01624261799,0.713260632818,1.02384488347,-0.653410645322,0.295211624627,1.05083495433,-0.388023815861,1.14295468048,-0.354517065955,0.824381230288,-0.410568527516,0.961553873868,-0.820141536528,-0.384659592866,-1.34073018891,1.80524080616,0.0134295261338,-0.331219702443,0.521759695709,-1.19703937397,1.39387902684,-0.440972186067,-0.391549365527
198005,-0.448508187887,-0.568768127875,-1.01624261799,0.713260632818,1.02384488347,-0.653410645322,0.295211624627,1.05083495433,-0.388023815861,1.14295468048,-0.354517065955,0.824381230288,-0.410568527516,0.961553873868,-0.820141536528,-0.384659592866,-1.34073018891,1.80524080616,0.0134295261338,-0.331219702443,0.521759695709,-1.19703937397,1.39387902684,-0.440972186067,-0.391549365527
198006,-0.448508187887,-0.568768127875,-1.01624261799,0.713260632818,1.02384488347,-0.653410645322,0.295211624627,1.05083495433,-0.388023815861,1.14295468048,-0.354517065955,0.824381230288,-0.410568527516,0.961553873868,-0.820141536528,-0.384659592866,-1.34073018891,1.80524080616,0.0134295261338,-0.331219702443,0.521759695709,-1.19703937397,1.39387902684,-0.440972186067,-0.391549365527
198007,-0.446479804433,-0.670464503643,-1.12403576751,0.766411256868,1.18759320832,-0.723260155618,0.517588394783,0.976277179008,-0.427493042968,1.18488018951,-0.251053004445,1.01485073555,-0.645997810479,0.980040862496,-0.946892614499,-0.32512243661,-1.51913956138,2.22010623282,-0.224101754624,-0.404147138994,0.286425681624,-1.15382385517,1.43380049923,-0.287717681711,-0.418245108117
198008,-0.446479804433,-0.670464503643,-1.12403576751,0.766411256868,1.18759320832,-0.723260155618,0.517588394783,0.976277179008,-0.427493042968,1.18488018951,-0.251053004445,1.01485073555,-0.645997810479,0.980040862496,-0.946892614499,-0.32512243661,-1.51913956138,2.22010623282,-0.224101754624,-0.404147138994,0.286425681624,-1.15382385517,1.43380049923,-0.287717681711,-0.418245108117
198009,-0.446479804433,-0.670464503643,-1.12403576751,0.766411256868,1.18759320832,-0.723260155618,0.517588394783,0.976277179008,-0.427493042968,1.18488018951,-0.251053004445,1.01485073555,-0.645997810479,0.980040862496,-0.946892614499,-0.32512243661,-1.51913956138,2.22010623282,-0.224101754624,-0.404147138994,0.286425681624,-1.15382385517,1.43380049923,-0.287717681711,-0.418245108117
198010,-0.446479804433,-0.670464503643,-1.12403576751,0.766411256868,1.18759320832,-0.723260155618,0.517588394783,0.976277179008,-0.427493042968,1.18488018951,-0.251053004445,1.01485073555,-0.645997810479,0.980040862496,-0.946892614499,-0.32512243661,-1.51913956138,2.22010623282,-0.224101754624,-0.404147138994,0.286425681624,-1.15382385517,1.43380049923,-0.287717681711,-0.418245108117
198011,-0.446479804433,-0.670464503643,-1.12403576751,0.766411256868,1.18759320832,-0.723260155618,0.517588394783,0.976277179008,-0.427493042968,1.18488018951,-0.251053004445,1.01485073555,-0.645997810479,0.980040862496,-0.946892614499,-0.32512243661,-1.51913956138,2.22010623282,-0.224101754624,-0.404147138994,0.286425681624,-1.15382385517,1.43380049923,-0.287717681711,-0.418245108117
198012,-0.446479804433,-0.670464503643,-1.12403576751,0.766411256868,1.18759320832,-0.723260155618,0.517588394783,0.976277179008,-0.427493042968,1.18488018951,-0.251053004445,1.01485073555,-0.645997810479,0.980040862496,-0.946892614499,-0.32512243661,-1.51913956138,2.22010623282,-0.224101754624,-0.404147138994,0.286425681624,-1.15382385517,1.43380049923,-0.287717681711,-0.418245108117
198101,-0.446479804433,-0.670464503643,-1.12403576751,0.766411256868,1.18759320832,-0.723260155618,0.517588394783,0.976277179008,-0.427493042968,1.18488018951,-0.251053004445,1.01485073555,-0.645997810479,0.980040862496,-0.946892614499,-0.32512243661,-1.51913956138,2.22010623282,-0.224101754624,-0.404147138994,0.286425681624,-1.15382385517,1.43380049923,-0.287717681711,-0.418245108117
198102,-0.446479804433,-0.670464503643,-1.12403576751,0.766411256868,1.18759320832,-0.723260155618,0.517588394783,0.976277179008,-0.427493042968,1.18488018951,-0.251053004445,1.01485073555,-0.645997810479,0.980040862496,-0.946892614499,-0.32512243661,-1.51913956138,2.22010623282,-0.224101754624,-0.404147138994,0.286425681624,-1.15382385517,1.43380049923,-0.287717681711,-0.418245108117
198103,-0.446479804433,-0.670464503643,-1.12403576751,0.766411256868,1.18759320832,-0.723260155618,0.517588394783,0.976277179008,-0.427493042968,1.18488018951,-0.251053004445,1.01485073555,-0.645997810479,0.980040862496,-0.946892614499,-0.32512243661,-1.51913956138,2.22010623282,-0.224101754624,-0.404147138994,0.286425681624,-1.15382385517,1.43380049923,-0.287717681711,-0.418245108117
198104,-0.446479804433,-0.670464503643,-1.12403576751,0.766411256868,1.18759320832,-0.723260155618,0.517588394783,0.976277179008,-0.427493042968,1.18488018951,-0.251053004445,1.01485073555,-0.645997810479,0.980040862496,-0.946892614499,-0.32512243661,-1.51913956138,2.22010623282,-0.224101754624,-0.404147138994,0.286425681624,-1.15382385517,1.43380049923,-0.287717681711,-0.418245108117
198105,-0.446479804433,-0.670464503643,-1.12403576751,0.766411256868,1.18759320832,-0.723260155618,0.517588394783,0.976277179008,-0.427493042968,1.18488018951,-0.251053004445,1.01485073555,-0.645997810479,0.980040862496,-0.946892614499,-0.32512243661,-1.51913956138,2.22010623282,-0.224101754624,-0.404147138994,0.286425681624,-1.15382385517,1.43380049923,-0.287717681711,-0.418245108117
198106,-0.446479804433,-0.670464503643,-1.12403576751,0.766411256868,1.18759320832,-0.723260155618,0.517588394783,0.976277179008,-0.427493042968,1.18488018951,-0.251053004445,1.01485073555,-0.645997810479,0.980040862496,-0.946892614499,-0.32512243661,-1.51913956138,2.22010623282,-0.224101754624,-0.404147138994,0.286425681624,-1.15382385517,1.43380049923,-0.287717681711,-0.418245108117
198107,-0.25873734796,-0.828081882101,-1.02667179438,0.519436268567,1.18005805805,-0.703743246983,0.363321067117,0.810848419903,-0.180387906145,1.47592553121,-0.346932086246,0.948776596413,-0.348898101025,0.739648508234,-0.968439308943,0.0453299287753,-1.4516281564,2.2226075183,-0.596265024709,-0.386093300683,0.261600752461,-1.21083344459,1.55483169976,-0.38513300706,-0.430539741553
198108,-0.25873734796,-0.828081882101,-1.02667179438,0.519436268567,1.18005805805,-0.703743246983,0.363321067117,0.810848419903,-0.180387906145,1.47592553121,-0.346932086246,0.948776596413,-0.348898101025,0.739648508234,-0.968439308943,0.0453299287753,-1.4516281564,2.2226075183,-0.596265024709,-0.386093300683,0.261600752461,-1.21083344459,1.55483169976,-0.38513300706,-0.430539741553
198109,-0.25873734796,-0.828081882101,-1.02667179438,0.519436268567,1.18005805805,-0.703743246983,0.363321067117,0.810848419903,-0.180387906145,1.47592553121,-0.346932086246,0.948776596413,-0.348898101025,0.739648508234,-0.968439308943,0.0453299287753,-1.4516281564,2.2226075183,-0.596265024709,-0.386093300683,0.261600752461,-1.21083344459,1.55483169976,-0.38513300706,-0.430539741553
198110,-0.25873734796,-0.828081882101,-1.02667179438,0.519436268567,1.18005805805,-0.703743246983,0.363321067117,0.810848419903,-0.180387906145,1.47592553121,-0.346932086246,0.948776596413,-0.348898101025,0.739648508234,-0.968439308943,0.0453299287753,-1.4516281564,2.2226075183,-0.596265024709,-0.386093300683,0.261600752461,-1.21083344459,1.55483169976,-0.38513300706,-0.430539741553
198111,-0.25873734796,-0.828081882101,-1.02667179438,0.519436268567,1.18005805805,-0.703743246983,0.363321067117,0.810848419903,-0.180387906145,1.47592553121,-0.346932086246,0.948776596413,-0.348898101025,0.739648508234,-0.968439308943,0.0453299287753,-1.4516281564,2.2226075183,-0.596265024709,-0.386093300683,0.261600752461,-1.21083344459,1.55483169976,-0.38513300706,-0.430539741553
198112,-0.25873734796,-0.828081882101,-1.02667179438,0.519436268567,1.18005805805,-0.703743246983,0.363321067117,0.810848419903,-0.180387906145,1.47592553121,-0.346932086246,0.948776596413,-0.348898101025,0.739648508234,-0.968439308943,0.0453299287753,-1.4516281564,2.2226075183,-0.596265024709,-0.386093300683,0.261600752461,-1.21083344459,1.55483169976,-0.38513300706,-0.430539741553
198201,-0.25873734796,-0.828081882101,-1.02667179438,0.519436268567,1.18005805805,-0.703743246983,0.363321067117,0.810848419903,-0.180387906145,1.47592553121,-0.346932086246,0.948776596413,-0.348898101025,0.739648508234,-0.968439308943,0.0453299287753,-1.4516281564,2.2226075183,-0.596265024709,-0.386093300683,0.261600752461,-1.21083344459,1.55483169976,-0.38513300706,-0.430539741553
198202,-0.25873734796,-0.828081882101,-1.02667179438,0.519436268567,1.18005805805,-0.703743246983,0.363321067117,0.810848419903,-0.180387906145,1.47592553121,-0.346932086246,0.948776596413,-0.348898101025,0.739648508234,-0.968439308943,0.0453299287753,-1.4516281564,2.2226075183,-0.596265024709,-0.386093300683,0.261600752461,-1.21083344459,1.55483169976,-0.38513300706,-0.430539741553
198203,-0.25873734796,-0.828081882101,-1.02667179438,0.519436268567,1.18005805805,-0.703743246983,0.363321067117,0.810848419903,-0.180387906145,1.47592553121,-0.346932086246,0.948776596413,-0.348898101025,0.739648508234,-0.968439308943,0.0453299287753,-1.4516281564,2.2226075183,-0.596265024709,-0.386093300683,0.261600752461,-1.21083344459,1.55483169976,-0.38513300706,-0.430539741553
198204,-0.25873734796,-0.828081882101,-1.02667179438,0.519436268567,1.18005805805,-0.703743246983,0.363321067117,0.810848419903,-0.180387906145,1.47592553121,-0.346932086246,0.948776596413,-0.348898101025,0.739648508234,-0.968439308943,0.0453299287753,-1.4516281564,2.2226075183,-0.596265024709,-0.386093300683,0.261600752461,-1.21083344459,1.55483169976,-0.38513300706,-0.430539741553
198205,-0.25873734796,-0.828081882101,-1.02667179438,0.519436268567,1.18005805805,-0.703743246983,0.363321067117,0.810848419903,-0.180387906145,1.47592553121,-0.346932086246,0.948776596413,-0.348898101025,0.739648508234,-0.968439308943,0.0453299287753,-1.4516281564,2.2226075183,-0.596265024709,-0.386093300683,0.261600752461,-1.21083344459,1.55483169976,-0.38513300706,-0.430539741553
198206,-0.25873734796,-0.828081882101,-1.02667179438,0.519436268567,1.18005805805,-0.703743246983,0.363321067117,0.810848419903,-0.180387906145,1.47592553121,-0.346932086246,0.948776596413,-0.348898101025,0.739648508234,-0.968439308943,0.0453299287753,-1.4516281564,2.2226075183,-0.596265024709,-0.386093300683,0.261600752461,-1.21083344459,1.55483169976,-0.38513300706,-0.430539741553
198207,-0.410330526298,-0.825528463695,-1.03107877007,0.484161962102,1.42887320562,-0.852610931117,0.461520358318,0.904087817174,0.0773470738909,1.26498010009,-0.455980800013,0.952637856239,-0.276504973891,0.577193591183,-0.749848641439,0.144422172334,-1.46898706553,2.01766699307,-0.68185837242,-0.51189736642,0.337610836948,-0.968255988128,1.32843490386,-0.464671737336,-0.281383234489
198208,-0.410330526298,-0.825528463695,-1.03107877007,0.484161962102,1.42887320562,-0.852610931117,0.461520358318,0.904087817174,0.0773470738909,1.26498010009,-0.455980800013,0.952637856239,-0.276504973891,0.577193591183,-0.749848641439,0.144422172334,-1.46898706553,2.01766699307,-0.68185837242,-0.51189736642,0.337610836948,-0.968255988128,1.32843490386,-0.464671737336,-0.281383234489
198209,-0.410330526298,-0.825528463695,-1.03107877007,0.484161962102,1.42887320562,-0.852610931117,0.461520358318,0.904087817174,0.0773470738909,1.26498010009,-0.455980800013,0.952637856239,-0.276504973891,0.577193591183,-0.749848641439,0.144422172334,-1.46898706553,2.01766699307,-0.68185837242,-0.51189736642,0.337610836948,-0.968255988128,1.32843490386,-0.464671737336,-0.281383234489
198210,-0.410330526298,-0.825528463695,-1.03107877007,0.484161962102,1.42887320562,-0.852610931117,0.461520358318,0.904087817174,0.0773470738909,1.26498010009,-0.455980800013,0.952637856239,-0.276504973891,0.577193591183,-0.749848641439,0.144422172334,-1.46898706553,2.01766699307,-0.68185837242,-0.51189736642,0.337610836948,-0.968255988128,1.32843490386,-0.464671737336,-0.281383234489
198211,-0.410330526298,-0.825528463695,-1.03107877007,0.484161962102,1.42887320562,-0.852610931117,0.461520358318,0.904087817174,0.0773470738909,1.26498010009,-0.455980800013,0.952637856239,-0.276504973891,0.577193591183,-0.749848641439,0.144422172334,-1.46898706553,2.01766699307,-0.68185837242,-0.51189736642,0.337610836948,-0.968255988128,1.32843490386,-0.464671737336,-0.281383234489
198212,-0.410330526298,-0.825528463695,-1.03107877007,0.484161962102,1.42887320562,-0.852610931117,0.461520358318,0.904087817174,0.0773470738909,1.26498010009,-0.455980800013,0.952637856239,-0.276504973891,0.577193591183,-0.749848641439,0.144422172334,-1.46898706553,2.01766699307,-0.68185837242,-0.51189736642,0.337610836948,-0.968255988128,1.32843490386,-0.464671737336,-0.281383234489
198301,-0.410330526298,-0.825528463695,-1.03107877007,0.484161962102,1.42887320562,-0.852610931117,0.461520358318,0.904087817174,0.0773470738909,1.26498010009,-0.455980800013,0.952637856239,-0.276504973891,0.577193591183,-0.749848641439,0.144422172334,-1.46898706553,2.01766699307,-0.68185837242,-0.51189736642,0.337610836948,-0.968255988128,1.32843490386,-0.464671737336,-0.281383234489
198302,-0.410330526298,-0.825528463695,-1.03107877007,0.484161962102,1.42887320562,-0.852610931117,0.461520358318,0.904087817174,0.0773470738909,1.26498010009,-0.455980800013,0.952637856239,-0.276504973891,0.577193591183,-0.749848641439,0.144422172334,-1.46898706553,2.01766699307,-0.68185837242,-0.51189736642,0.337610836948,-0.968255988128,1.32843490386,-0.464671737336,-0.281383234489
198303,-0.410330526298,-0.825528463695,-1.03107877007,0.484161962102,1.42887320562,-0.852610931117,0.461520358318,0.904087817174,0.0773470738909,1.26498010009,-0.455980800013,0.952637856239,-0.276504973891,0.577193591183,-0.749848641439,0.144422172334,-1.46898706553,2.01766699307,-0.68185837242,-0.51189736642,0.337610836948,-0.968255988128,1.32843490386,-0.464671737336,-0.281383234489
198304,-0.410330526298,-0.825528463695,-1.03107877007,0.484161962102,1.42887320562,-0.852610931117,0.461520358318,0.904087817174,0.0773470738909,1.26498010009,-0.455980800013,0.952637856239,-0.276504973891,0.577193591183,-0.749848641439,0.144422172334,-1.46898706553,2.01766699307,-0.68185837242,-0.51189736642,0.337610836948,-0.968255988128,1.32843490386,-0.464671737336,-0.281383234489
198305,-0.410330526298,-0.825528463695,-1.03107877007,0.484161962102,1.42887320562,-0.852610931117,0.461520358318,0.904087817174,0.0773470738909,1.26498010009,-0.455980800013,0.952637856239,-0.276504973891,0.577193591183,-0.749848641439,0.144422172334,-1.46898706553,2.01766699307,-0.68185837242,-0.51189736642,0.337610836948,-0.968255988128,1.32843490386,-0.464671737336,-0.281383234489
198306,-0.410330526298,-0.825528463695,-1.03107877007,0.484161962102,1.42887320562,-0.852610931117,0.461520358318,0.904087817174,0.0773470738909,1.26498010009,-0.455980800013,0.952637856239,-0.276504973891,0.577193591183,-0.749848641439,0.144422172334,-1.46898706553,2.01766699307,-0.68185837242,-0.51189736642,0.337610836948,-0.968255988128,1.32843490386,-0.464671737336,-0.281383234489
198307,-0.464702651169,-0.746324642462,-0.850620841369,0.550550882433,1.16050026962,-0.932660628622,0.571770207538,0.948074930372,-0.0865853745158,1.1494781571,-0.390765830052,0.899066014346,-0.24681488899,0.593469966117,-0.465137571183,0.201870206993,-1.1791854793,1.54777787686,-0.754146337457,-0.560013425914,0.413982306539,-1.01201657805,1.22349524802,-0.282215409064,-0.28884640778
198308,-0.464702651169,-0.746324642462,-0.850620841369,0.550550882433,1.16050026962,-0.932660628622,0.571770207538,0.948074930372,-0.0865853745158,1.1494781571,-0.390765830052,0.899066014346,-0.24681488899,0.593469966117,-0.465137571183,0.201870206993,-1.1791854793,1.54777787686,-0.754146337457,-0.560013425914,0.413982306539,-1.01201657805,1.22349524802,-0.282215409064,-0.28884640778
198309,-0.464702651169,-0.746324642462,-0.850620841369,0.550550882433,1.16050026962,-0.932660628622,0.571770207538,0.948074930372,-0.0865853745158,1.1494781571,-0.390765830052,0.899066014346,-0.24681488899,0.593469966117,-0.465137571183,0.201870206993,-1.1791854793,1.54777787686,-0.754146337457,-0.560013425914,0.413982306539,-1.01201657805,1.22349524802,-0.282215409064,-0.28884640778
198310,-0.464702651169,-0.746324642462,-0.850620841369,0.550550882433,1.16050026962,-0.932660628622,0.571770207538,0.948074930372,-0.0865853745158,1.1494781571,-0.390765830052,0.899066014346,-0.24681488899,0.593469966117,-0.465137571183,0.201870206993,-1.1791854793,1.54777787686,-0.754146337457,-0.560013425914,0.413982306539,-1.01201657805,1.22349524802,-0.282215409064,-0.28884640778
198311,-0.464702651169,-0.746324642462,-0.850620841369,0.550550882433,1.16050026962,-0.932660628622,0.571770207538,0.948074930372,-0.0865853745158,1.1494781571,-0.390765830052,0.899066014346,-0.24681488899,0.593469966117,-0.465137571183,0.201870206993,-1.1791854793,1.54777787686,-0.754146337457,-0.560013425914,0.413982306539,-1.01201657805,1.22349524802,-0.282215409064,-0.28884640778
198312,-0.464702651169,-0.746324642462,-0.850620841369,0.550550882433,1.16050026962,-0.932660628622,0.571770207538,0.948074930372,-0.0865853745158,1.1494781571,-0.390765830052,0.899066014346,-0.24681488899,0.593469966117,-0.465137571183,0.201870206993,-1.1791854793,1.54777787686,-0.754146337457,-0.560013425914,0.413982306539,-1.01201657805,1.22349524802,-0.282215409064,-0.28884640778
198401,-0.464702651169,-0.746324642462,-0.850620841369,0.550550882433,1.16050026962,-0.932660628622,0.571770207538,0.948074930372,-0.0865853745158,1.1494781571,-0.390765830052,0.899066014346,-0.24681488899,0.593469966117,-0.465137571183,0.201870206993,-1.1791854793,1.54777787686,-0.754146337457,-0.560013425914,0.413982306539,-1.01201657805,1.22349524802,-0.282215409064,-0.28884640778
198402,-0.464702651169,-0.746324642462,-0.850620841369,0.550550882433,1.16050026962,-0.932660628622,0.571770207538,0.948074930372,-0.0865853745158,1.1494781571,-0.390765830052,0.899066014346,-0.24681488899,0.593469966117,-0.465137571183,0.201870206993,-1.1791854793,1.54777787686,-0.754146337457,-0.560013425914,0.413982306539,-1.01201657805,1.22349524802,-0.282215409064,-0.28884640778
198403,-0.464702651169,-0.746324642462,-0.850620841369,0.550550882433,1.16050026962,-0.932660628622,0.571770207538,0.948074930372,-0.0865853745158,1.1494781571,-0.390765830052,0.899066014346,-0.24681488899,0.593469966117,-0.465137571183,0.201870206993,-1.1791854793,1.54777787686,-0.754146337457,-0.560013425914,0.413982306539,-1.01201657805,1.22349524802,-0.282215409064,-0.28884640778
198404,-0.464702651169,-0.746324642462,-0.850620841369,0.550550882433,1.16050026962,-0.932660628622,0.571770207538,0.948074930372,-0.0865853745158,1.1494781571,-0.390765830052,0.899066014346,-0.24681488899,0.593469966117,-0.465137571183,0.201870206993,-1.1791854793,1.54777787686,-0.754146337457,-0.560013425914,0.413982306539,-1.01201657805,1.22349524802,-0.282215409064,-0.28884640778
198405,-0.464702651169,-0.746324642462,-0.850620841369,0.550550882433,1.16050026962,-0.932660628622,0.571770207538,0.948074930372,-0.0865853745158,1.1494781571,-0.390765830052,0.899066014346,-0.24681488899,0.593469966117,-0.465137571183,0.201870206993,-1.1791854793,1.54777787686,-0.754146337457,-0.560013425914,0.413982306539,-1.01201657805,1.22349524802,-0.282215409064,-0.28884640778
198406,-0.464702651169,-0.746324642462,-0.850620841369,0.550550882433,1.16050026962,-0.932660628622,0.571770207538,0.948074930372,-0.0865853745158,1.1494781571,-0.390765830052,0.899066014346,-0.24681488899,0.593469966117,-0.465137571183,0.201870206993,-1.1791854793,1.54777787686,-0.754146337457,-0.560013425914,0.413982306539,-1.01201657805,1.22349524802,-0.282215409064,-0.28884640778
198407,-0.51743879648,-0.612953004011,-0.876034952871,0.496610334312,1.29495521352,-0.961032706665,0.430458871813,0.848059865728,0.238841631804,1.06688907879,-0.206748005709,0.797435200684,-0.056313650917,0.261169293899,-0.509786356458,0.185500436471,-1.40214233556,1.68096292697,-0.811606339366,-0.482222287939,0.363081811508,-0.831234236768,1.20691638932,-0.518756672874,-0.0846117092007
198408,-0.51743879648,-0.612953004011,-0.876034952871,0.496610334312,1.29495521352,-0.961032706665,0.430458871813,0.848059865728,0.238841631804,1.06688907879,-0.206748005709,0.797435200684,-0.056313650917,0.261169293899,-0.509786356458,0.185500436471,-1.40214233556,1.68096292697,-0.811606339366,-0.482222287939,0.363081811508,-0.831234236768,1.20691638932,-0.518756672874,-0.0846117092007
198409,-0.51743879648,-0.612953004011,-0.876034952871,0.496610334312,1.29495521352,-0.961032706665,0.430458871813,0.848059865728,0.238841631804,1.06688907879,-0.206748005709,0.797435200684,-0.056313650917,0.261169293899,-0.509786356458,0.185500436471,-1.40214233556,1.68096292697,-0.811606339366,-0.482222287939,0.363081811508,-0.831234236768,1.20691638932,-0.518756672874,-0.0846117092007
198410,-0.51743879648,-0.612953004011,-0.876034952871,0.496610334312,1.29495521352,-0.961032706665,0.430458871813,0.848059865728,0.238841631804,1.06688907879,-0.206748005709,0.797435200684,-0.056313650917,0.261169293899,-0.509786356458,0.185500436471,-1.40214233556,1.68096292697,-0.811606339366,-0.482222287939,0.363081811508,-0.831234236768,1.20691638932,-0.518756672874,-0.0846117092007
198411,-0.51743879648,-0.612953004011,-0.876034952871,0.496610334312,1.29495521352,-0.961032706665,0.430458871813,0.848059865728,0.238841631804,1.06688907879,-0.206748005709,0.797435200684,-0.056313650917,0.261169293899,-0.509786356458,0.185500436471,-1.40214233556,1.68096292697,-0.811606339366,-0.482222287939,0.363081811508,-0.831234236768,1.20691638932,-0.518756672874,-0.0846117092007
